{"learner":{"attributes":{"scikit_learn":"{\"_estimator_type\": \"classifier\"}"},"feature_names":["age","length_of_stay","previous_admissions","comorbidity_count_x","0_x","1_x","2_x","3_x","4_x","5_x","6_x","7_x","8_x","9_x","A_x","B_x","C_x","D_x","E_x","F_x","G_x","H_x","I_x","J_x","K_x","L_x","M_x","N_x","O_x","P_x","Q_x","R_x","S_x","T_x","U_x","V_x","W_x","X_x","Y_x","Z_x","avg_creatinine_x","avg_hemoglobin_x","avg_glucose_x","num_medications_x","comorbidity_count_y","num_medications_y","comorbidity_count","0_y","1_y","2_y","3_y","4_y","5_y","6_y","7_y","8_y","9_y","A_y","B_y","C_y","D_y","E_y","F_y","G_y","H_y","I_y","J_y","K_y","L_y","M_y","N_y","O_y","P_y","Q_y","R_y","S_y","T_y","U_y","V_y","W_y","X_y","Y_y","Z_y","avg_creatinine_y","avg_hemoglobin_y","avg_glucose_y","num_medications","avg_creatinine","avg_glucose","avg_hemoglobin","los_x_comorb","glucose_flag","creatinine_flag","hb_flag","polypharmacy_flag","gender_M"],"feature_types":["int","int","int","float","float","float","float","float","float","float","float","float","float","float","float","float","float","float","float","float","float","float","float","float","float","float","float","float","float","float","float","float","float","float","float","float","float","float","float","float","float","float","float","int","float","int","float","float","float","float","float","float","float","float","float","float","float","float","float","float","float","float","float","float","float","float","float","float","float","float","float","float","float","float","float","float","float","float","float","float","float","float","float","float","float","float","int","float","float","float","float","int","int","int","int","i"],"gradient_booster":{"model":{"cats":{"enc":[],"feature_segments":[],"sorted_idx":[]},"gbtree_model_param":{"num_parallel_tree":"1","num_trees":"500"},"iteration_indptr":[0,1,2,3,4,5,6,7,8,9,10,11,12,13,14,15,16,17,18,19,20,21,22,23,24,25,26,27,28,29,30,31,32,33,34,35,36,37,38,39,40,41,42,43,44,45,46,47,48,49,50,51,52,53,54,55,56,57,58,59,60,61,62,63,64,65,66,67,68,69,70,71,72,73,74,75,76,77,78,79,80,81,82,83,84,85,86,87,88,89,90,91,92,93,94,95,96,97,98,99,100,101,102,103,104,105,106,107,108,109,110,111,112,113,114,115,116,117,118,119,120,121,122,123,124,125,126,127,128,129,130,131,132,133,134,135,136,137,138,139,140,141,142,143,144,145,146,147,148,149,150,151,152,153,154,155,156,157,158,159,160,161,162,163,164,165,166,167,168,169,170,171,172,173,174,175,176,177,178,179,180,181,182,183,184,185,186,187,188,189,190,191,192,193,194,195,196,197,198,199,200,201,202,203,204,205,206,207,208,209,210,211,212,213,214,215,216,217,218,219,220,221,222,223,224,225,226,227,228,229,230,231,232,233,234,235,236,237,238,239,240,241,242,243,244,245,246,247,248,249,250,251,252,253,254,255,256,257,258,259,260,261,262,263,264,265,266,267,268,269,270,271,272,273,274,275,276,277,278,279,280,281,282,283,284,285,286,287,288,289,290,291,292,293,294,295,296,297,298,299,300,301,302,303,304,305,306,307,308,309,310,311,312,313,314,315,316,317,318,319,320,321,322,323,324,325,326,327,328,329,330,331,332,333,334,335,336,337,338,339,340,341,342,343,344,345,346,347,348,349,350,351,352,353,354,355,356,357,358,359,360,361,362,363,364,365,366,367,368,369,370,371,372,373,374,375,376,377,378,379,380,381,382,383,384,385,386,387,388,389,390,391,392,393,394,395,396,397,398,399,400,401,402,403,404,405,406,407,408,409,410,411,412,413,414,415,416,417,418,419,420,421,422,423,424,425,426,427,428,429,430,431,432,433,434,435,436,437,438,439,440,441,442,443,444,445,446,447,448,449,450,451,452,453,454,455,456,457,458,459,460,461,462,463,464,465,466,467,468,469,470,471,472,473,474,475,476,477,478,479,480,481,482,483,484,485,486,487,488,489,490,491,492,493,494,495,496,497,498,499,500],"tree_info":[0,0,0,0,0,0,0,0,0,0,0,0,0,0,0,0,0,0,0,0,0,0,0,0,0,0,0,0,0,0,0,0,0,0,0,0,0,0,0,0,0,0,0,0,0,0,0,0,0,0,0,0,0,0,0,0,0,0,0,0,0,0,0,0,0,0,0,0,0,0,0,0,0,0,0,0,0,0,0,0,0,0,0,0,0,0,0,0,0,0,0,0,0,0,0,0,0,0,0,0,0,0,0,0,0,0,0,0,0,0,0,0,0,0,0,0,0,0,0,0,0,0,0,0,0,0,0,0,0,0,0,0,0,0,0,0,0,0,0,0,0,0,0,0,0,0,0,0,0,0,0,0,0,0,0,0,0,0,0,0,0,0,0,0,0,0,0,0,0,0,0,0,0,0,0,0,0,0,0,0,0,0,0,0,0,0,0,0,0,0,0,0,0,0,0,0,0,0,0,0,0,0,0,0,0,0,0,0,0,0,0,0,0,0,0,0,0,0,0,0,0,0,0,0,0,0,0,0,0,0,0,0,0,0,0,0,0,0,0,0,0,0,0,0,0,0,0,0,0,0,0,0,0,0,0,0,0,0,0,0,0,0,0,0,0,0,0,0,0,0,0,0,0,0,0,0,0,0,0,0,0,0,0,0,0,0,0,0,0,0,0,0,0,0,0,0,0,0,0,0,0,0,0,0,0,0,0,0,0,0,0,0,0,0,0,0,0,0,0,0,0,0,0,0,0,0,0,0,0,0,0,0,0,0,0,0,0,0,0,0,0,0,0,0,0,0,0,0,0,0,0,0,0,0,0,0,0,0,0,0,0,0,0,0,0,0,0,0,0,0,0,0,0,0,0,0,0,0,0,0,0,0,0,0,0,0,0,0,0,0,0,0,0,0,0,0,0,0,0,0,0,0,0,0,0,0,0,0,0,0,0,0,0,0,0,0,0,0,0,0,0,0,0,0,0,0,0,0,0,0,0,0,0,0,0,0,0,0,0,0,0,0,0,0,0,0,0,0,0,0,0,0,0,0,0,0,0,0,0,0,0,0,0,0,0,0,0,0,0,0,0,0,0,0,0,0,0,0,0,0,0,0,0,0,0,0,0,0,0,0,0,0,0,0,0,0,0,0,0,0],"trees":[{"base_weights":[-9.2712895E-4,-3.5307738E-1,5.8481234E-1,-9.435141E-3,-6.840307E-1,3.7755883E-1,9.2723453E-1,-2.2390042E-1,2.0589337E-1,-8.798009E-1,-3.7695837E-1,7.028499E-1,1.23405814E-1,7.8128827E-1,1.1961198E0,-4.2881334E-1,-7.459417E-2,4.1318408E-1,-1.4563225E-2,-1.080929E0,-7.286748E-1,-4.3558928E-1,3.233127E-1,7.893176E-1,5.12984E-1,2.486754E-3,3.726138E-1,9.610708E-1,5.8720416E-1,1.089637E0,1.4172018E0,-4.8812133E-1,2.6211235E-1,1.9242832E-2,-3.033836E-1,2.9685602E-1,5.9738857E-1,-1.7660455E-1,2.1181127E-1,-1.3009534E0,-6.881597E-1,-7.689281E-1,8.824506E-3,-3.8561693E-1,-7.801054E-1,1.3980871E-1,6.162273E-1,8.705554E-1,5.908909E-1,3.4094858E-1,6.080363E-1,-1.0291221E-1,2.3892866E-1,4.8056632E-1,1.0947801E-1,1.07579E0,7.569519E-1,7.630943E-1,3.6152446E-1,1.238707E0,9.446032E-1,1.4291829E0,4.348613E-1,-3.1974133E-2,-1.6932383E-2,1.6251875E-2,-2.7841577E-2,3.2567387E-3,-2.0809485E-2,-6.5312968E-3,-2.3592427E-2,1.6131934E-2,-3.4805745E-2,3.7016835E-2,2.3443341E-2,-1.6691783E-2,3.6947057E-3,7.3029944E-3,2.4448844E-2,-7.5615846E-2,-6.149294E-2,-2.9958216E-2,-4.7030386E-2,-4.5826454E-2,-3.140945E-2,1.0908733E-2,-1.6904067E-2,-2.1666884E-2,-6.045369E-3,-5.591662E-2,-2.6276467E-2,1.1749723E-2,-2.652972E-2,3.35748E-2,-4.559947E-2,4.5795515E-2,2.8942833E-2,1.7578954E-2,3.47535E-2,1.4893611E-2,3.6128305E-2,3.4152154E-2,1.9813752E-2,-9.0837795E-3,4.6927566E-3,1.5487628E-2,-3.5179898E-4,1.7349372E-2,3.14402E-2,-5.202196E-3,1.7040534E-2,5.6237068E-2,4.5111258E-2,4.1787345E-2,2.7779315E-2,4.135945E-2,2.600932E-2,2.1257063E-2,3.486801E-3,6.2596366E-2,3.5619687E-2,5.750024E-2,3.54213E-2,6.7505464E-2,7.7724926E-2,4.6598297E-2,-2.5838066E-2],"categories":[],"categories_nodes":[],"categories_segments":[],"categories_sizes":[],"default_left":[0,0,0,0,0,0,0,0,0,0,0,0,0,0,0,0,0,0,0,0,0,0,0,0,0,0,0,0,0,0,0,0,0,0,0,0,0,0,0,0,0,0,0,0,0,0,0,0,0,0,0,0,0,0,0,0,0,0,0,0,0,0,0,0,0,0,0,0,0,0,0,0,0,0,0,0,0,0,0,0,0,0,0,0,0,0,0,0,0,0,0,0,0,0,0,0,0,0,0,0,0,0,0,0,0,0,0,0,0,0,0,0,0,0,0,0,0,0,0,0,0,0,0,0,0,0,0],"id":0,"left_children":[1,3,5,7,9,11,13,15,17,19,21,23,25,27,29,31,33,35,37,39,41,43,45,47,49,51,53,55,57,59,61,63,65,67,69,71,73,75,77,79,81,83,85,87,89,91,93,95,97,99,101,103,105,107,109,111,113,115,117,119,121,123,125,-1,-1,-1,-1,-1,-1,-1,-1,-1,-1,-1,-1,-1,-1,-1,-1,-1,-1,-1,-1,-1,-1,-1,-1,-1,-1,-1,-1,-1,-1,-1,-1,-1,-1,-1,-1,-1,-1,-1,-1,-1,-1,-1,-1,-1,-1,-1,-1,-1,-1,-1,-1,-1,-1,-1,-1,-1,-1,-1,-1,-1,-1,-1,-1],"loss_changes":[2.9605168E4,1.0194379E4,3.8241504E3,2.0309042E3,2.7446387E3,2.7755073E3,7.964219E2,6.7405994E2,1.0028448E3,8.467539E2,7.3010376E2,2.4134473E2,5.679799E2,4.5907764E2,1.6669629E2,3.8067883E2,2.736716E2,2.4217664E2,3.901711E2,1.0327324E3,4.7273535E2,2.8214746E2,7.377516E1,1.625498E2,7.518652E1,3.1631302E2,1.748648E2,1.5928027E2,2.5127368E2,1.0320654E2,2.668164E1,1.9329199E2,3.8046825E1,1.8068164E2,1.0784256E2,1.777508E2,8.0063965E1,2.4418379E2,8.079677E1,1.1332129E2,9.596741E1,3.1309277E2,5.9999435E1,1.8096118E2,1.7827356E2,5.411988E1,4.529207E1,9.439746E1,7.309302E1,2.6795303E1,4.687915E1,1.3607846E2,6.81765E1,8.623682E1,8.858154E1,3.6152344E1,3.8619873E1,5.5003418E1,5.1529602E1,1.5651123E1,1.1809619E2,2.060791E1,1.4384895E1,0E0,0E0,0E0,0E0,0E0,0E0,0E0,0E0,0E0,0E0,0E0,0E0,0E0,0E0,0E0,0E0,0E0,0E0,0E0,0E0,0E0,0E0,0E0,0E0,0E0,0E0,0E0,0E0,0E0,0E0,0E0,0E0,0E0,0E0,0E0,0E0,0E0,0E0,0E0,0E0,0E0,0E0,0E0,0E0,0E0,0E0,0E0,0E0,0E0,0E0,0E0,0E0,0E0,0E0,0E0,0E0,0E0,0E0,0E0,0E0,0E0,0E0,0E0,0E0],"parents":[2147483647,0,0,1,1,2,2,3,3,4,4,5,5,6,6,7,7,8,8,9,9,10,10,11,11,12,12,13,13,14,14,15,15,16,16,17,17,18,18,19,19,20,20,21,21,22,22,23,23,24,24,25,25,26,26,27,27,28,28,29,29,30,30,31,31,32,32,33,33,34,34,35,35,36,36,37,37,38,38,39,39,40,40,41,41,42,42,43,43,44,44,45,45,46,46,47,47,48,48,49,49,50,50,51,51,52,52,53,53,54,54,55,55,56,56,57,57,58,58,59,59,60,60,61,61,62,62],"right_children":[2,4,6,8,10,12,14,16,18,20,22,24,26,28,30,32,34,36,38,40,42,44,46,48,50,52,54,56,58,60,62,64,66,68,70,72,74,76,78,80,82,84,86,88,90,92,94,96,98,100,102,104,106,108,110,112,114,116,118,120,122,124,126,-1,-1,-1,-1,-1,-1,-1,-1,-1,-1,-1,-1,-1,-1,-1,-1,-1,-1,-1,-1,-1,-1,-1,-1,-1,-1,-1,-1,-1,-1,-1,-1,-1,-1,-1,-1,-1,-1,-1,-1,-1,-1,-1,-1,-1,-1,-1,-1,-1,-1,-1,-1,-1,-1,-1,-1,-1,-1,-1,-1,-1,-1,-1,-1],"split_conditions":[3E0,1.18E1,9E0,1E0,1.6E1,1.0333333E1,2E1,2.3E1,9.9E0,6E0,1E0,2E0,1E0,1.076E1,3.9E1,1E0,2E0,1E0,1E0,1E0,1E0,8.45E0,2E0,9.54E0,2.6E1,6E0,1.3033334E1,1E0,1E0,1E0,7E0,9E0,1.9222223E0,1E0,9.4E0,2.98E1,6.5E1,2.4E1,1E0,2.7E1,1E0,5E1,1.5428572E0,2E0,4.3E1,1.7E0,8.4E1,7.8E1,4E0,1.7327272E2,2E0,2.2E1,6.9E1,5E0,5E0,1.005E1,9.533334E0,1.2475E1,1.29E1,1E0,1.0281818E1,6.2E1,6E0,-3.1974133E-2,-1.6932383E-2,1.6251875E-2,-2.7841577E-2,3.2567387E-3,-2.0809485E-2,-6.5312968E-3,-2.3592427E-2,1.6131934E-2,-3.4805745E-2,3.7016835E-2,2.3443341E-2,-1.6691783E-2,3.6947057E-3,7.3029944E-3,2.4448844E-2,-7.5615846E-2,-6.149294E-2,-2.9958216E-2,-4.7030386E-2,-4.5826454E-2,-3.140945E-2,1.0908733E-2,-1.6904067E-2,-2.1666884E-2,-6.045369E-3,-5.591662E-2,-2.6276467E-2,1.1749723E-2,-2.652972E-2,3.35748E-2,-4.559947E-2,4.5795515E-2,2.8942833E-2,1.7578954E-2,3.47535E-2,1.4893611E-2,3.6128305E-2,3.4152154E-2,1.9813752E-2,-9.0837795E-3,4.6927566E-3,1.5487628E-2,-3.5179898E-4,1.7349372E-2,3.14402E-2,-5.202196E-3,1.7040534E-2,5.6237068E-2,4.5111258E-2,4.1787345E-2,2.7779315E-2,4.135945E-2,2.600932E-2,2.1257063E-2,3.486801E-3,6.2596366E-2,3.5619687E-2,5.750024E-2,3.54213E-2,6.7505464E-2,7.7724926E-2,4.6598297E-2,-2.5838066E-2],"split_indices":[2,85,2,2,43,42,2,43,42,43,5,22,9,85,2,5,22,9,9,2,5,83,5,85,43,2,85,27,39,39,22,3,83,12,42,83,0,43,5,0,74,0,83,2,0,83,0,0,2,88,23,43,0,2,2,42,42,42,42,23,42,2,39,0,0,0,0,0,0,0,0,0,0,0,0,0,0,0,0,0,0,0,0,0,0,0,0,0,0,0,0,0,0,0,0,0,0,0,0,0,0,0,0,0,0,0,0,0,0,0,0,0,0,0,0,0,0,0,0,0,0,0,0,0,0,0,0],"split_type":[0,0,0,0,0,0,0,0,0,0,0,0,0,0,0,0,0,0,0,0,0,0,0,0,0,0,0,0,0,0,0,0,0,0,0,0,0,0,0,0,0,0,0,0,0,0,0,0,0,0,0,0,0,0,0,0,0,0,0,0,0,0,0,0,0,0,0,0,0,0,0,0,0,0,0,0,0,0,0,0,0,0,0,0,0,0,0,0,0,0,0,0,0,0,0,0,0,0,0,0,0,0,0,0,0,0,0,0,0,0,0,0,0,0,0,0,0,0,0,0,0,0,0,0,0,0,0],"sum_hessian":[1.4352547E5,8.9636086E4,5.388938E4,4.397554E4,4.566055E4,3.3571867E4,2.0317514E4,2.203191E4,2.1943627E4,2.7882525E4,1.7778023E4,1.4724358E4,1.8847508E4,1.3171927E4,7.145587E3,9.28584E3,1.2746071E4,1.130907E4,1.0634556E4,1.1959678E4,1.5922847E4,1.6404887E4,1.3731382E3,1.0114783E4,4.6095757E3,1.269078E4,6.156727E3,6.8358467E3,6.3360796E3,4.8267446E3,2.3188425E3,8.552039E3,7.338001E2,9.039482E3,3.706589E3,6.933235E3,4.375836E3,6.198105E3,4.436451E3,7.664058E3,4.2956196E3,1.5098706E4,8.2414075E2,1.4328627E4,2.0762593E3,8.4514954E2,5.2798865E2,7.174208E3,2.940575E3,1.6421075E3,2.9674683E3,8.778254E3,3.9125269E3,4.3651006E3,1.7916266E3,4.373547E3,2.4622998E3,3.5594978E3,2.776582E3,2.376534E3,2.4502107E3,2.2904521E3,2.8390368E1,4.2475596E3,4.3044795E3,6.8200037E2,5.1799725E1,8.178381E3,8.611012E2,1.8308561E3,1.8757332E3,6.7584263E3,1.7480853E2,2.0693945E3,2.3064414E3,3.8077515E3,2.3903535E3,3.587034E3,8.494172E2,1.9239403E3,5.740118E3,3.1784834E3,1.1171362E3,7.367005E3,7.731701E3,5.14202E2,3.0993872E2,1.2139526E4,2.1891003E3,8.9018146E2,1.1860779E3,7.4064075E2,1.04508804E2,5.101012E2,1.7887432E1,6.2069736E3,9.672345E2,8.931891E2,2.0473857E3,1.4771499E3,1.649577E2,2.1896562E3,7.778118E2,6.2689517E3,2.5093025E3,3.0376084E3,8.749185E2,2.297833E3,2.0672673E3,9.3196533E2,8.5966125E2,3.4071355E3,9.6641144E2,1.7675157E3,6.9478406E2,2.814458E3,7.450399E2,2.2792046E3,4.9737744E2,2.3169563E3,5.9577522E1,1.3084191E3,1.1417916E3,1.4115449E3,8.7890717E2,1.8662292E1,9.728073E0],"tree_param":{"num_deleted":"0","num_feature":"96","num_nodes":"127","size_leaf_vector":"1"}},{"base_weights":[5.0820503E-4,-3.3284736E-1,5.5605185E-1,-7.121215E-1,-7.3910326E-2,3.7610868E-1,9.148792E-1,-5.0008696E-1,-9.522517E-1,-2.2785884E-1,2.0477185E-1,1.6437808E-1,7.060997E-1,8.1010723E-1,1.2554655E0,-5.6006205E-1,3.6903238E-1,-1.089583E0,-7.349543E-1,-2.8742507E-1,3.6908805E-1,-4.2882238E-2,4.1638592E-1,-2.7840588E-2,3.0684024E-1,6.3677543E-1,9.765753E-1,6.854719E-1,9.9376607E-1,1.1494544E0,1.3946738E0,-6.2112164E-1,3.2278672E-1,1.904574E-1,6.7636037E-1,-1.2305784E0,-8.7861294E-1,-5.966433E-1,-9.3274534E-1,-3.5010156E-1,4.154003E-1,1.22701086E-1,5.155172E-1,-1.15535595E-1,5.2842015E-1,4.816819E-1,1.404201E-1,-1.772058E-1,2.6548016E-1,4.2289484E-1,1.0698948E-1,4.3649182E-1,8.0817693E-1,1.0726566E0,5.4875594E-1,8.570462E-1,4.6489584E-1,1.1078172E0,8.8526446E-1,1.2678577E0,1.0333602E0,1.419007E0,1.1034634E0,-3.85989E-2,-1.9488974E-2,1.7482655E-2,-4.273494E-2,-4.704658E-3,1.880746E-2,4.5303714E-2,2.0205026E-2,-6.268334E-2,2.1393923E-2,-4.5793742E-2,-6.8722153E-3,-3.156381E-2,3.766662E-2,-5.3586382E-2,-3.642143E-2,-2.5027815E-2,-5.625017E-3,2.3314686E-2,-1.8033728E-2,1.443083E-3,2.2409257E-2,2.9820805E-2,5.7480005E-3,-3.5984032E-3,-3.3741273E-2,3.4780428E-2,-7.3562483E-3,2.7801951E-2,1.0591465E-2,-1.9440647E-3,2.9373605E-2,-4.01457E-3,-2.1642791E-2,1.8639376E-2,-2.8076863E-3,1.418588E-2,2.7924543E-2,-1.2260056E-4,2.7966773E-2,1.4496284E-2,2.7872894E-2,5.7241928E-2,3.763047E-2,5.7835545E-2,3.4414034E-2,7.970453E-3,3.429394E-2,3.6654226E-2,5.331995E-2,1.9818883E-2,4.2658694E-2,5.6133844E-2,2.8489066E-2,4.6363577E-2,2.877529E-2,8.193069E-2,6.1895695E-2,4.4022925E-2,5.965805E-2,7.1464054E-2,3.8545854E-2,-4.9028944E-2,5.9352648E-2],"categories":[],"categories_nodes":[],"categories_segments":[],"categories_sizes":[],"default_left":[0,0,0,0,0,0,0,0,0,0,0,0,0,0,0,0,0,0,0,0,0,0,0,0,0,0,0,0,0,0,0,0,0,0,0,0,0,0,0,0,0,0,0,0,0,0,0,0,0,0,0,0,0,0,0,0,0,0,0,0,0,0,0,0,0,0,0,0,0,0,0,0,0,0,0,0,0,0,0,0,0,0,0,0,0,0,0,0,0,0,0,0,0,0,0,0,0,0,0,0,0,0,0,0,0,0,0,0,0,0,0,0,0,0,0,0,0,0,0,0,0,0,0,0,0,0,0],"id":1,"left_children":[1,3,5,7,9,11,13,15,17,19,21,23,25,27,29,31,33,35,37,39,41,43,45,47,49,51,53,55,57,59,61,63,65,67,69,71,73,75,77,79,81,83,85,87,89,91,93,95,97,99,101,103,105,107,109,111,113,115,117,119,121,123,125,-1,-1,-1,-1,-1,-1,-1,-1,-1,-1,-1,-1,-1,-1,-1,-1,-1,-1,-1,-1,-1,-1,-1,-1,-1,-1,-1,-1,-1,-1,-1,-1,-1,-1,-1,-1,-1,-1,-1,-1,-1,-1,-1,-1,-1,-1,-1,-1,-1,-1,-1,-1,-1,-1,-1,-1,-1,-1,-1,-1,-1,-1,-1,-1],"loss_changes":[2.6635049E4,8.827507E3,3.4822559E3,1.8563652E3,2.291842E3,2.5098672E3,6.417744E2,1.00985254E3,5.0950293E2,1.2236646E3,9.9622894E2,5.992915E2,2.626455E2,3.1471484E2,6.0909668E1,9.769624E2,6.8524536E1,3.105371E2,1.8068799E2,1.3784373E3,1.1259204E2,3.636463E2,1.8464075E2,4.0821658E2,2.9147778E2,3.8340723E2,1.1707959E2,3.103662E2,6.792334E1,3.182251E1,1.1376953E1,5.91167E2,3.7399414E1,4.191543E1,2.8362213E1,2.4088574E2,1.1587085E2,1.8289026E2,7.6588135E1,1.0269031E3,1.0137045E2,3.557879E1,6.338745E1,1.893341E2,1.11743286E2,1.662002E2,1.5734775E2,1.5292311E2,1.0852562E2,1.4989624E2,2.2866045E2,9.127484E1,1.118064E2,7.4694824E1,2.8028305E1,1.1905249E2,9.5300415E1,2.1031982E1,3.6660645E1,1.1170654E1,2.8818726E1,1.0099121E1,2.6484756E1,0E0,0E0,0E0,0E0,0E0,0E0,0E0,0E0,0E0,0E0,0E0,0E0,0E0,0E0,0E0,0E0,0E0,0E0,0E0,0E0,0E0,0E0,0E0,0E0,0E0,0E0,0E0,0E0,0E0,0E0,0E0,0E0,0E0,0E0,0E0,0E0,0E0,0E0,0E0,0E0,0E0,0E0,0E0,0E0,0E0,0E0,0E0,0E0,0E0,0E0,0E0,0E0,0E0,0E0,0E0,0E0,0E0,0E0,0E0,0E0,0E0,0E0,0E0,0E0],"parents":[2147483647,0,0,1,1,2,2,3,3,4,4,5,5,6,6,7,7,8,8,9,9,10,10,11,11,12,12,13,13,14,14,15,15,16,16,17,17,18,18,19,19,20,20,21,21,22,22,23,23,24,24,25,25,26,26,27,27,28,28,29,29,30,30,31,31,32,32,33,33,34,34,35,35,36,36,37,37,38,38,39,39,40,40,41,41,42,42,43,43,44,44,45,45,46,46,47,47,48,48,49,49,50,50,51,51,52,52,53,53,54,54,55,55,56,56,57,57,58,58,59,59,60,60,61,61,62,62],"right_children":[2,4,6,8,10,12,14,16,18,20,22,24,26,28,30,32,34,36,38,40,42,44,46,48,50,52,54,56,58,60,62,64,66,68,70,72,74,76,78,80,82,84,86,88,90,92,94,96,98,100,102,104,106,108,110,112,114,116,118,120,122,124,126,-1,-1,-1,-1,-1,-1,-1,-1,-1,-1,-1,-1,-1,-1,-1,-1,-1,-1,-1,-1,-1,-1,-1,-1,-1,-1,-1,-1,-1,-1,-1,-1,-1,-1,-1,-1,-1,-1,-1,-1,-1,-1,-1,-1,-1,-1,-1,-1,-1,-1,-1,-1,-1,-1,-1,-1,-1,-1,-1,-1,-1,-1,-1,-1],"split_conditions":[3E0,1.6E1,1E1,2.98E1,1E0,1E0,2.8E1,1E0,1E0,1E0,1E0,1.7E1,1E0,1E0,4.4E1,1E0,2E0,4E0,3E0,1E0,4E0,2.5E1,1E0,6E0,1E0,1E0,2.6E1,1E0,1E0,1E0,4E0,1E0,9.1E1,1E0,6.4E1,2E0,1E0,1E0,3.9E1,1E0,8.4E1,2E0,7.8E1,1E0,3E0,7.7E1,1E0,1E0,1E0,5E0,1E0,5E0,1E0,1.2E0,1E0,1.7E1,1E0,3.5E1,7.5E1,2.7E1,1E0,3E0,1.2E1,-3.85989E-2,-1.9488974E-2,1.7482655E-2,-4.273494E-2,-4.704658E-3,1.880746E-2,4.5303714E-2,2.0205026E-2,-6.268334E-2,2.1393923E-2,-4.5793742E-2,-6.8722153E-3,-3.156381E-2,3.766662E-2,-5.3586382E-2,-3.642143E-2,-2.5027815E-2,-5.625017E-3,2.3314686E-2,-1.8033728E-2,1.443083E-3,2.2409257E-2,2.9820805E-2,5.7480005E-3,-3.5984032E-3,-3.3741273E-2,3.4780428E-2,-7.3562483E-3,2.7801951E-2,1.0591465E-2,-1.9440647E-3,2.9373605E-2,-4.01457E-3,-2.1642791E-2,1.8639376E-2,-2.8076863E-3,1.418588E-2,2.7924543E-2,-1.2260056E-4,2.7966773E-2,1.4496284E-2,2.7872894E-2,5.7241928E-2,3.763047E-2,5.7835545E-2,3.4414034E-2,7.970453E-3,3.429394E-2,3.6654226E-2,5.331995E-2,1.9818883E-2,4.2658694E-2,5.6133844E-2,2.8489066E-2,4.6363577E-2,2.877529E-2,8.193069E-2,6.1895695E-2,4.4022925E-2,5.965805E-2,7.1464054E-2,3.8545854E-2,-4.9028944E-2,5.9352648E-2],"split_indices":[2,43,2,83,93,93,2,5,2,5,2,43,16,93,2,16,5,43,90,16,1,1,26,2,22,6,3,39,22,39,22,2,0,9,0,10,5,28,0,9,0,2,0,32,23,0,16,22,31,2,16,2,8,83,33,2,16,3,0,0,93,26,43,0,0,0,0,0,0,0,0,0,0,0,0,0,0,0,0,0,0,0,0,0,0,0,0,0,0,0,0,0,0,0,0,0,0,0,0,0,0,0,0,0,0,0,0,0,0,0,0,0,0,0,0,0,0,0,0,0,0,0,0,0,0,0,0],"split_type":[0,0,0,0,0,0,0,0,0,0,0,0,0,0,0,0,0,0,0,0,0,0,0,0,0,0,0,0,0,0,0,0,0,0,0,0,0,0,0,0,0,0,0,0,0,0,0,0,0,0,0,0,0,0,0,0,0,0,0,0,0,0,0,0,0,0,0,0,0,0,0,0,0,0,0,0,0,0,0,0,0,0,0,0,0,0,0,0,0,0,0,0,0,0,0,0,0,0,0,0,0,0,0,0,0,0,0,0,0,0,0,0,0,0,0,0,0,0,0,0,0,0,0,0,0,0,0],"sum_hessian":[1.4382075E5,8.988525E4,5.3935504E4,3.6467816E4,5.3417434E4,3.592303E4,1.8012473E4,1.9368527E4,1.709929E4,3.440934E4,1.9008092E4,2.1883514E4,1.4039519E4,1.3777563E4,4.234909E3,1.811858E4,1.2499474E3,1.04750625E4,6.6242256E3,3.128781E4,3.121529E3,8.7586045E3,1.0249487E4,9.315405E3,1.2568109E4,1.1177915E4,2.8616028E3,8.21047E3,5.567094E3,2.4093645E3,1.8255444E3,1.69468E4,1.171779E3,7.916017E2,4.5834576E2,6.2759155E3,4.199147E3,3.9006216E3,2.723604E3,2.8726541E4,2.5612712E3,1.16429E3,1.9572389E3,7.7711357E3,9.8746893E2,8.287778E3,1.9617084E3,6.1725874E3,3.1428176E3,7.9502393E3,4.6178696E3,5.156299E3,6.0216167E3,2.3355657E3,5.2603723E2,4.6165874E3,3.5938823E3,2.709648E3,2.857446E3,1.1879076E3,1.2214569E3,1.6811934E3,1.4435101E2,1.0256372E4,6.6904297E3,1.1463268E3,2.5452366E1,3.1278662E2,4.7881503E2,2.4733426E2,2.1101149E2,6.1899854E3,8.593027E1,3.997918E3,2.0122919E2,3.8035752E3,9.704625E1,1.618445E3,1.1051592E3,1.758818E4,1.1138359E4,2.4040198E3,1.5725157E2,9.045813E2,2.5970874E2,1.6279578E3,3.2928116E2,7.2105757E3,5.6056036E2,7.915429E2,1.9592604E2,6.4965986E3,1.7911799E3,1.4007968E3,5.6091156E2,4.476793E3,1.695794E3,2.3564663E3,7.863514E2,3.9248374E3,4.0254019E3,3.719066E3,8.988037E2,2.332983E3,2.8233162E3,8.5031213E2,5.171304E3,1.914827E3,4.2073853E2,1.375734E2,3.884638E2,2.9024783E3,1.714109E3,3.0565273E3,5.373549E2,2.6357656E3,7.3882256E1,2.5144604E3,3.429856E2,8.47563E1,1.1031514E3,6.275294E2,5.939275E2,1.6537711E3,2.7422234E1,5.1527424E0,1.3919827E2],"tree_param":{"num_deleted":"0","num_feature":"96","num_nodes":"127","size_leaf_vector":"1"}},{"base_weights":[1.2182058E-3,-3.9035806E-1,4.2691013E-1,-9.864915E-2,-6.980229E-1,2.121166E-1,7.681031E-1,-1.596966E-1,4.4448164E-1,-1.0661895E0,-5.5333054E-1,5.138439E-1,-8.003919E-2,6.559257E-1,1.0763351E0,-3.5902914E-1,3.640533E-2,5.296685E-1,4.532233E-3,-1.1728469E0,-7.571822E-1,-6.010374E-1,1.640331E-1,4.464231E-1,8.280058E-1,-2.3638137E-1,8.412484E-2,8.098341E-1,4.3572953E-1,9.7688687E-1,1.2854546E0,-1.1069576E-1,-4.6370468E-1,-8.697687E-2,2.461749E-1,4.1886497E-1,7.205534E-1,2.7453995E-1,-2.1685019E-1,-1.210294E0,-5.191453E-1,-6.6100144E-1,-1.0462391E0,-6.387762E-1,1.24268495E-1,-1.5257022E-2,5.138166E-1,2.1761061E-1,6.3451767E-1,9.4481224E-1,4.3205386E-1,-3.6452916E-1,-1.5304408E-2,4.195172E-2,5.258823E-1,8.993093E-1,6.3970464E-1,3.2280532E-1,6.279423E-1,1.0915312E0,8.685942E-1,1.2161392E0,1.4106113E0,-1.2758942E-2,5.832697E-3,-2.9416118E-2,-1.6782662E-2,-7.773101E-3,1.4069405E-2,2.6454723E-2,5.078849E-3,2.2833433E-2,-1.4907065E-2,5.1122498E-2,2.8955901E-2,1.8037228E-2,-4.6183288E-2,8.141593E-3,-2.0121122E-2,-7.1839176E-2,-5.707335E-2,-1.0523977E-2,-4.8587058E-2,-3.4123972E-2,2.3976991E-2,-5.4303546E-2,1.0014028E-4,-3.7454102E-2,-2.3430457E-2,8.419516E-3,-5.008123E-2,-3.1331943E-3,2.9298192E-2,4.041111E-3,3.2123804E-2,1.601318E-2,1.019902E-3,4.1528776E-2,2.7026925E-2,5.1762577E-2,2.5710812E-2,3.2788564E-2,1.1141861E-2,-1.978392E-2,1.0602028E-2,-6.0645537E-3,1.1569402E-2,9.195686E-3,-1.08759105E-2,4.988096E-2,1.9424444E-2,4.7457688E-2,3.347386E-2,3.7170332E-2,2.1923335E-2,1.34175895E-2,3.8070068E-2,2.6523158E-2,4.4945687E-2,4.97118E-2,5.8222122E-2,5.298717E-2,3.3828463E-2,6.1592598E-2,6.211528E-3,7.337463E-2,5.875531E-2],"categories":[],"categories_nodes":[],"categories_segments":[],"categories_sizes":[],"default_left":[0,0,0,0,0,0,0,0,0,0,0,0,0,0,0,0,0,0,0,0,0,0,0,0,0,0,0,0,0,0,0,0,0,0,0,0,0,0,0,0,0,0,0,0,0,0,1,0,0,0,0,0,0,0,0,0,0,0,0,0,0,0,1,0,0,0,0,0,0,0,0,0,0,0,0,0,0,0,0,0,0,0,0,0,0,0,0,0,0,0,0,0,0,0,0,0,0,0,0,0,0,0,0,0,0,0,0,0,0,0,0,0,0,0,0,0,0,0,0,0,0,0,0,0,0,0,0],"id":2,"left_children":[1,3,5,7,9,11,13,15,17,19,21,23,25,27,29,31,33,35,37,39,41,43,45,47,49,51,53,55,57,59,61,63,65,67,69,71,73,75,77,79,81,83,85,87,89,91,93,95,97,99,101,103,105,107,109,111,113,115,117,119,121,123,125,-1,-1,-1,-1,-1,-1,-1,-1,-1,-1,-1,-1,-1,-1,-1,-1,-1,-1,-1,-1,-1,-1,-1,-1,-1,-1,-1,-1,-1,-1,-1,-1,-1,-1,-1,-1,-1,-1,-1,-1,-1,-1,-1,-1,-1,-1,-1,-1,-1,-1,-1,-1,-1,-1,-1,-1,-1,-1,-1,-1,-1,-1,-1,-1],"loss_changes":[2.3949654E4,6.7164727E3,5.044829E3,1.2738191E3,1.9396641E3,3.724116E3,9.1883984E2,1.3499711E3,1.4548285E2,3.377461E2,8.949868E2,4.39833E2,5.509222E2,6.605293E2,1.4628711E2,4.4514355E2,4.506114E2,6.848389E1,3.7761032E1,1.8630566E2,7.268457E1,6.7120215E2,1.0231195E2,7.3637695E2,1.6937012E2,3.114721E2,1.9505685E2,1.7413037E2,1.7398132E2,5.8796875E1,1.8093506E1,1.6689008E2,1.9205542E2,2.766046E2,2.637248E2,5.597635E1,5.035028E1,2.9729439E1,2.452357E1,1.1094043E2,5.7841522E1,4.890503E1,2.7443237E1,4.3710938E2,6.0449593E1,3.0803833E1,3.07462E1,1.5632776E2,1.7259546E2,1.0982471E2,3.908029E1,1.2508319E2,1.055391E2,3.5216757E2,5.875061E1,8.549902E1,8.229529E1,1.2057544E2,7.794031E1,1.53967285E1,9.029675E1,2.518335E1,9.093994E0,0E0,0E0,0E0,0E0,0E0,0E0,0E0,0E0,0E0,0E0,0E0,0E0,0E0,0E0,0E0,0E0,0E0,0E0,0E0,0E0,0E0,0E0,0E0,0E0,0E0,0E0,0E0,0E0,0E0,0E0,0E0,0E0,0E0,0E0,0E0,0E0,0E0,0E0,0E0,0E0,0E0,0E0,0E0,0E0,0E0,0E0,0E0,0E0,0E0,0E0,0E0,0E0,0E0,0E0,0E0,0E0,0E0,0E0,0E0,0E0,0E0,0E0,0E0,0E0],"parents":[2147483647,0,0,1,1,2,2,3,3,4,4,5,5,6,6,7,7,8,8,9,9,10,10,11,11,12,12,13,13,14,14,15,15,16,16,17,17,18,18,19,19,20,20,21,21,22,22,23,23,24,24,25,25,26,26,27,27,28,28,29,29,30,30,31,31,32,32,33,33,34,34,35,35,36,36,37,37,38,38,39,39,40,40,41,41,42,42,43,43,44,44,45,45,46,46,47,47,48,48,49,49,50,50,51,51,52,52,53,53,54,54,55,55,56,56,57,57,58,58,59,59,60,60,61,61,62,62],"right_children":[2,4,6,8,10,12,14,16,18,20,22,24,26,28,30,32,34,36,38,40,42,44,46,48,50,52,54,56,58,60,62,64,66,68,70,72,74,76,78,80,82,84,86,88,90,92,94,96,98,100,102,104,106,108,110,112,114,116,118,120,122,124,126,-1,-1,-1,-1,-1,-1,-1,-1,-1,-1,-1,-1,-1,-1,-1,-1,-1,-1,-1,-1,-1,-1,-1,-1,-1,-1,-1,-1,-1,-1,-1,-1,-1,-1,-1,-1,-1,-1,-1,-1,-1,-1,-1,-1,-1,-1,-1,-1,-1,-1,-1,-1,-1,-1,-1,-1,-1,-1,-1,-1,-1,-1,-1,-1],"split_conditions":[2E0,1.21E1,7E0,1E0,6E0,1.09E1,2E1,1E0,7.9E1,1E0,1E0,1E0,1.7E1,1.125E1,3.9E1,9.364706E0,1E0,1E0,3E0,1E0,1E0,1E0,2E0,1E0,5E0,4E0,1E0,1E0,1E0,1E0,6.4E1,1E0,2.1E1,1E0,9.466666E0,2.7E1,8.194643E0,1E0,1E0,2.6E1,3.9E1,2E0,4E0,1E0,8.6E1,4E0,1.2109091E1,9.775E0,5.7E1,1.2E0,2.3E1,1E0,1E0,1E0,1E1,7.4E1,9.533334E0,1E0,1.4E1,1E0,1.0025E1,7E0,9.433333E0,-1.2758942E-2,5.832697E-3,-2.9416118E-2,-1.6782662E-2,-7.773101E-3,1.4069405E-2,2.6454723E-2,5.078849E-3,2.2833433E-2,-1.4907065E-2,5.1122498E-2,2.8955901E-2,1.8037228E-2,-4.6183288E-2,8.141593E-3,-2.0121122E-2,-7.1839176E-2,-5.707335E-2,-1.0523977E-2,-4.8587058E-2,-3.4123972E-2,2.3976991E-2,-5.4303546E-2,1.0014028E-4,-3.7454102E-2,-2.3430457E-2,8.419516E-3,-5.008123E-2,-3.1331943E-3,2.9298192E-2,4.041111E-3,3.2123804E-2,1.601318E-2,1.019902E-3,4.1528776E-2,2.7026925E-2,5.1762577E-2,2.5710812E-2,3.2788564E-2,1.1141861E-2,-1.978392E-2,1.0602028E-2,-6.0645537E-3,1.1569402E-2,9.195686E-3,-1.08759105E-2,4.988096E-2,1.9424444E-2,4.7457688E-2,3.347386E-2,3.7170332E-2,2.1923335E-2,1.34175895E-2,3.8070068E-2,2.6523158E-2,4.4945687E-2,4.97118E-2,5.8222122E-2,5.298717E-2,3.3828463E-2,6.1592598E-2,6.211528E-3,7.337463E-2,5.875531E-2],"split_indices":[2,85,2,16,43,42,2,6,0,2,48,16,43,85,2,42,2,76,39,10,74,16,48,6,39,2,16,70,7,39,2,2,43,48,42,44,42,32,74,0,0,10,22,8,0,11,85,85,0,87,44,16,7,39,44,0,42,16,2,95,42,22,85,0,0,0,0,0,0,0,0,0,0,0,0,0,0,0,0,0,0,0,0,0,0,0,0,0,0,0,0,0,0,0,0,0,0,0,0,0,0,0,0,0,0,0,0,0,0,0,0,0,0,0,0,0,0,0,0,0,0,0,0,0,0,0,0],"split_type":[0,0,0,0,0,0,0,0,0,0,0,0,0,0,0,0,0,0,0,0,0,0,0,0,0,0,0,0,0,0,0,0,0,0,0,0,0,0,0,0,0,0,0,0,0,0,0,0,0,0,0,0,0,0,0,0,0,0,0,0,0,0,0,0,0,0,0,0,0,0,0,0,0,0,0,0,0,0,0,0,0,0,0,0,0,0,0,0,0,0,0,0,0,0,0,0,0,0,0,0,0,0,0,0,0,0,0,0,0,0,0,0,0,0,0,0,0,0,0,0,0,0,0,0,0,0,0],"sum_hessian":[1.4367508E5,7.483633E4,6.883874E4,3.841495E4,3.6421383E4,4.2245355E4,2.6593385E4,3.4534055E4,3.8808933E3,1.0273728E4,2.6147654E4,2.0781873E4,2.1463482E4,1.9499791E4,7.093594E3,1.7125549E4,1.7408508E4,3.2511694E3,6.297239E2,7.635464E3,2.6382634E3,2.4517342E4,1.6303135E3,1.7111975E4,3.6698992E3,1.0993421E4,1.0470062E4,1.1475905E4,8.0238853E3,4.811245E3,2.282349E3,5.078742E3,1.2046806E4,1.0961665E4,6.4468433E3,2.0591074E3,1.192062E3,2.8359674E2,3.4612714E2,7.2209614E3,4.1450256E2,1.982045E3,6.562183E2,2.330487E4,1.2124711E3,1.0784724E3,5.518411E2,7.7213247E3,9.390649E3,2.8328247E3,8.370744E2,6.958982E3,4.0344392E3,9.558627E3,9.1143555E2,7.51782E3,3.958085E3,5.056117E3,2.9677678E3,2.3326738E3,2.4785713E3,1.4757516E3,8.065976E2,3.1052202E3,1.973522E3,6.1034404E3,5.9433647E3,9.243688E3,1.7179764E3,2.1795967E3,4.2672466E3,1.9563246E3,1.0278276E2,3.7831418E2,8.1374786E2,2.6521487E2,1.8381884E1,1.1367332E2,2.3245383E2,1.6782999E3,5.542661E3,2.4730685E2,1.6719572E2,1.9458044E3,3.624055E1,6.3216095E2,2.4057365E1,1.4137346E4,9.167524E3,1.1675667E3,4.490449E1,1.0004794E3,7.799301E1,1.2678459E2,4.2505652E2,5.0776733E3,2.6436516E3,3.0402634E3,6.350386E3,2.3399539E3,4.928708E2,4.0348724E2,4.3358716E2,6.60259E3,3.5639197E2,2.8223704E3,1.2120688E3,6.178511E3,3.3801152E3,2.0416815E2,7.0726733E2,6.1754077E3,1.3424122E3,2.6102668E3,1.3478182E3,4.4991416E3,5.569755E2,2.1847751E3,7.8299286E2,1.0055159E3,1.3271581E3,1.2398536E3,1.2387177E3,1.4546903E3,2.1061323E1,6.454674E2,1.6113017E2],"tree_param":{"num_deleted":"0","num_feature":"96","num_nodes":"127","size_leaf_vector":"1"}},{"base_weights":[2.5486043E-3,-3.0072275E-1,5.065564E-1,8.6218596E-2,-5.224257E-1,3.446742E-1,8.3047366E-1,-1.17243975E-1,2.7396554E-1,-7.3193544E-1,-2.6987687E-1,5.888522E-1,9.658222E-2,7.412432E-1,1.1686101E0,-1.7613883E-1,4.018419E-1,1.5444294E-1,4.5013812E-1,-7.627363E-1,5.4485057E-2,-3.2185274E-1,3.0218542E-1,5.2678573E-1,8.6223537E-1,-5.9017107E-2,2.5177068E-1,8.9267516E-1,6.2033075E-1,1.0982958E0,1.3412962E0,-3.572749E-1,5.62807E-2,5.972385E-1,1.4588486E-1,9.997147E-3,5.87373E-1,5.330082E-1,2.6433396E-1,-8.8454705E-1,-5.649047E-1,-5.9348468E-2,3.28708E-1,-3.6843532E-1,2.6400423E-1,1.676316E-1,5.135186E-1,3.1702235E-1,7.0055515E-1,1.1151288E0,7.1126324E-1,-2.2465004E-1,7.821887E-2,1.5420416E-1,4.6557477E-1,9.9765414E-1,7.356605E-1,7.659884E-1,4.3612272E-1,1.1192105E0,5.7606024E-1,1.1489727E0,7.145313E-2,-1.54020805E-2,-3.6819052E-2,-1.3455893E-3,2.0036213E-2,2.2411846E-2,5.9159823E-2,1.48490565E-2,-2.292021E-2,7.7464827E-3,-8.827659E-3,3.5338204E-2,1.2778935E-2,3.2395408E-2,2.1591041E-2,-8.6101584E-2,1.3539602E-2,-5.6827854E-2,-3.615477E-2,-2.9820075E-2,7.1417578E-3,2.3254981E-2,-6.095122E-3,6.6360547E-3,3.3302296E-2,-2.2212833E-2,-3.2270562E-3,1.5150598E-2,-3.635586E-2,1.2805151E-3,1.9719107E-2,3.3970606E-2,8.380013E-3,2.2381643E-2,9.403634E-3,4.0921792E-2,2.6360625E-2,1.7344082E-2,5.8328707E-2,3.7747983E-2,1.2612757E-2,-6.8282606E-3,-2.5552658E-2,-1.9031775E-3,1.0258167E-2,4.6998705E-3,3.178787E-2,2.668807E-2,1.5034179E-2,5.0457712E-2,2.8097961E-2,3.307147E-2,4.673966E-2,3.209306E-2,4.793867E-2,1.912262E-2,3.7405428E-2,7.099383E-2,5.452996E-2,5.3673197E-2,1.3861676E-2,6.768471E-2,4.993267E-2],"categories":[],"categories_nodes":[],"categories_segments":[],"categories_sizes":[],"default_left":[0,0,0,0,0,0,0,0,0,0,0,0,0,0,0,0,0,0,0,0,0,0,0,0,0,0,0,0,0,0,0,0,0,0,0,0,0,0,0,0,0,0,0,0,0,0,0,0,0,0,0,0,0,0,0,0,0,0,0,0,0,0,0,0,0,0,0,0,0,0,0,0,0,0,0,0,0,0,0,0,0,0,0,0,0,0,0,0,0,0,0,0,0,0,0,0,0,0,0,0,0,0,0,0,0,0,0,0,0,0,0,0,0,0,0,0,0,0,0,0,0,0,0,0,0],"id":3,"left_children":[1,3,5,7,9,11,13,15,17,19,21,23,25,27,29,31,33,35,37,39,41,43,45,47,49,51,53,55,57,59,61,63,65,67,69,71,73,75,77,79,81,83,85,87,89,91,93,95,97,99,101,103,105,107,109,111,113,115,117,119,121,123,-1,-1,-1,-1,-1,-1,-1,-1,-1,-1,-1,-1,-1,-1,-1,-1,-1,-1,-1,-1,-1,-1,-1,-1,-1,-1,-1,-1,-1,-1,-1,-1,-1,-1,-1,-1,-1,-1,-1,-1,-1,-1,-1,-1,-1,-1,-1,-1,-1,-1,-1,-1,-1,-1,-1,-1,-1,-1,-1,-1,-1,-1,-1],"loss_changes":[2.1933342E4,7.6854424E3,2.8263955E3,1.2466302E3,3.013375E3,2.177457E3,5.4110156E2,4.788866E2,3.5731873E2,7.540762E2,7.6800903E2,3.069253E2,4.3058215E2,2.597212E2,4.4044434E1,5.922316E2,7.974594E1,6.3245544E2,1.0548682E2,7.213887E2,3.6673004E1,6.4623096E2,6.109607E1,5.3800977E2,1.2711719E2,2.0242368E2,1.8615564E2,1.0325391E2,2.1182642E2,2.8512695E1,1.6591309E1,1.4733203E2,1.7658746E2,7.847406E1,6.3352295E1,2.0509187E2,1.0004883E2,5.4865723E1,2.763475E1,7.5346875E2,2.5462476E2,2.7305717E1,2.2694122E1,5.0533252E2,6.766292E1,4.237238E1,4.788977E1,1.126236E2,1.6457373E2,4.9022827E1,4.1941406E1,1.0172575E2,7.190218E1,1.7771115E2,3.1285828E1,1.8362305E1,3.68042E1,1.05018555E2,5.8216614E1,2.0521973E1,1.5287434E1,9.221497E0,0E0,0E0,0E0,0E0,0E0,0E0,0E0,0E0,0E0,0E0,0E0,0E0,0E0,0E0,0E0,0E0,0E0,0E0,0E0,0E0,0E0,0E0,0E0,0E0,0E0,0E0,0E0,0E0,0E0,0E0,0E0,0E0,0E0,0E0,0E0,0E0,0E0,0E0,0E0,0E0,0E0,0E0,0E0,0E0,0E0,0E0,0E0,0E0,0E0,0E0,0E0,0E0,0E0,0E0,0E0,0E0,0E0,0E0,0E0,0E0,0E0,0E0,0E0],"parents":[2147483647,0,0,1,1,2,2,3,3,4,4,5,5,6,6,7,7,8,8,9,9,10,10,11,11,12,12,13,13,14,14,15,15,16,16,17,17,18,18,19,19,20,20,21,21,22,22,23,23,24,24,25,25,26,26,27,27,28,28,29,29,30,30,31,31,32,32,33,33,34,34,35,35,36,36,37,37,38,38,39,39,40,40,41,41,42,42,43,43,44,44,45,45,46,46,47,47,48,48,49,49,50,50,51,51,52,52,53,53,54,54,55,55,56,56,57,57,58,58,59,59,60,60,61,61],"right_children":[2,4,6,8,10,12,14,16,18,20,22,24,26,28,30,32,34,36,38,40,42,44,46,48,50,52,54,56,58,60,62,64,66,68,70,72,74,76,78,80,82,84,86,88,90,92,94,96,98,100,102,104,106,108,110,112,114,116,118,120,122,124,-1,-1,-1,-1,-1,-1,-1,-1,-1,-1,-1,-1,-1,-1,-1,-1,-1,-1,-1,-1,-1,-1,-1,-1,-1,-1,-1,-1,-1,-1,-1,-1,-1,-1,-1,-1,-1,-1,-1,-1,-1,-1,-1,-1,-1,-1,-1,-1,-1,-1,-1,-1,-1,-1,-1,-1,-1,-1,-1,-1,-1,-1,-1],"split_conditions":[3E0,1.09E1,1E1,1E0,1.6E1,1.08E1,3E1,1E0,1E0,1E0,1E0,1E0,5E0,1.03E1,5.6E1,1E0,3E0,1E0,1.0025E1,1E0,2E0,1E0,2E0,1E0,1.5E1,1.6E1,1E0,1E0,1E0,5E1,1E0,1E0,1E0,5.2E1,8E1,9.6E0,7.3E1,6.5E1,2.2E1,4E0,1E0,6.4285713E-1,1.225E1,2E0,1.54E0,2E0,6.9E1,9.066667E0,6.8E1,1.3E1,3E0,1E0,1E0,1E0,1.2433333E1,6.5E1,2E1,1.7E1,1E0,2.7E1,4.4E1,9.533334E0,7.145313E-2,-1.54020805E-2,-3.6819052E-2,-1.3455893E-3,2.0036213E-2,2.2411846E-2,5.9159823E-2,1.48490565E-2,-2.292021E-2,7.7464827E-3,-8.827659E-3,3.5338204E-2,1.2778935E-2,3.2395408E-2,2.1591041E-2,-8.6101584E-2,1.3539602E-2,-5.6827854E-2,-3.615477E-2,-2.9820075E-2,7.1417578E-3,2.3254981E-2,-6.095122E-3,6.6360547E-3,3.3302296E-2,-2.2212833E-2,-3.2270562E-3,1.5150598E-2,-3.635586E-2,1.2805151E-3,1.9719107E-2,3.3970606E-2,8.380013E-3,2.2381643E-2,9.403634E-3,4.0921792E-2,2.6360625E-2,1.7344082E-2,5.8328707E-2,3.7747983E-2,1.2612757E-2,-6.8282606E-3,-2.5552658E-2,-1.9031775E-3,1.0258167E-2,4.6998705E-3,3.178787E-2,2.668807E-2,1.5034179E-2,5.0457712E-2,2.8097961E-2,3.307147E-2,4.673966E-2,3.209306E-2,4.793867E-2,1.912262E-2,3.7405428E-2,7.099383E-2,5.452996E-2,5.3673197E-2,1.3861676E-2,6.768471E-2,4.993267E-2],"split_indices":[2,42,2,2,43,42,2,59,9,5,5,59,2,42,2,9,82,59,42,2,5,59,5,49,3,43,9,27,82,43,95,32,5,43,0,42,0,0,0,43,59,40,42,9,40,9,0,42,0,43,23,31,49,59,42,43,2,2,59,0,0,42,0,0,0,0,0,0,0,0,0,0,0,0,0,0,0,0,0,0,0,0,0,0,0,0,0,0,0,0,0,0,0,0,0,0,0,0,0,0,0,0,0,0,0,0,0,0,0,0,0,0,0,0,0,0,0,0,0,0,0,0,0,0,0],"split_type":[0,0,0,0,0,0,0,0,0,0,0,0,0,0,0,0,0,0,0,0,0,0,0,0,0,0,0,0,0,0,0,0,0,0,0,0,0,0,0,0,0,0,0,0,0,0,0,0,0,0,0,0,0,0,0,0,0,0,0,0,0,0,0,0,0,0,0,0,0,0,0,0,0,0,0,0,0,0,0,0,0,0,0,0,0,0,0,0,0,0,0,0,0,0,0,0,0,0,0,0,0,0,0,0,0,0,0,0,0,0,0,0,0,0,0,0,0,0,0,0,0,0,0,0,0],"sum_hessian":[1.4349281E5,8.958698E4,5.3905836E4,3.2632908E4,5.695407E4,3.5944258E4,1.7961578E4,1.5661171E4,1.6971736E4,3.1128531E4,2.582554E4,1.8114332E4,1.7829926E4,1.4213884E4,3.7476943E3,1.4065929E4,1.5952426E3,1.01127295E4,6.859008E3,2.9955332E4,1.1731984E3,2.3674943E4,2.150597E3,1.4765118E4,3.3492131E3,8.903486E3,8.926439E3,6.3076875E3,7.9061963E3,2.6684958E3,1.0791984E3,7.9047935E3,6.161135E3,9.038861E2,6.9135645E2,7.583531E3,2.5291985E3,4.7421177E3,2.1168901E3,1.8537672E4,1.141766E4,8.296029E2,3.4359546E2,2.19315E4,1.7434432E3,1.3150869E3,8.355101E2,6.690996E3,8.0741226E3,1.2496082E3,2.099605E3,4.0340596E3,4.8694272E3,6.130563E3,2.795876E3,3.7770337E3,2.5306538E3,4.413321E3,3.4928755E3,2.5646433E3,1.0385261E2,3.425835E2,7.366148E2,6.997822E3,9.069719E2,4.9632876E3,1.197847E3,7.2204443E2,1.8184169E2,5.534744E2,1.3788205E2,4.2679185E3,3.315612E3,1.8591001E3,6.700984E2,2.2180652E3,2.5240525E3,5.9992375E0,2.1108909E3,7.2363716E3,1.1301301E4,1.0931336E4,4.8632413E2,8.7721016E1,7.418819E2,2.1821193E2,1.25383514E2,1.7551863E4,4.379636E3,1.6780925E3,6.535066E1,8.093054E2,5.0578156E2,5.640447E2,2.714654E2,3.3228638E3,3.368132E3,4.803682E3,3.2704407E3,7.891357E1,1.1706946E3,1.916513E3,1.8309203E2,3.0863215E3,9.4773816E2,2.5418066E3,2.3276204E3,5.450325E3,6.8023816E2,1.9763635E3,8.195124E2,3.6786218E3,9.841196E1,1.8466102E3,6.840435E2,2.687358E3,1.7259629E3,2.9820967E3,5.107789E2,2.1861926E2,2.3460242E3,3.8003193E1,6.584942E1,1.4165569E2,2.009278E2],"tree_param":{"num_deleted":"0","num_feature":"96","num_nodes":"125","size_leaf_vector":"1"}},{"base_weights":[7.761355E-5,-2.865451E-1,4.7691417E-1,6.200912E-2,-5.0608855E-1,3.0309293E-1,7.652851E-1,-1.210812E-1,2.3446038E-1,-7.043967E-1,-2.5875998E-1,5.4640913E-1,5.8150377E-2,6.3905925E-1,9.9607456E-1,-2.7076942E-1,1.1948295E-1,2.650576E-1,-5.7707685E-1,-8.968928E-1,-5.772669E-1,-2.9893503E-1,2.8565812E-1,4.8843852E-1,8.0432415E-1,-6.455179E-2,1.9791542E-1,7.844891E-1,4.8149946E-1,9.1372806E-1,1.2015777E0,-2.3304938E-1,-8.7996453E-1,1.6536492E-1,-5.3333163E-1,1.0091836E-1,3.7968576E-1,5.4139413E-2,-6.3887054E-1,-1.0710475E0,-5.875724E-1,-6.150335E-1,6.6571094E-2,-4.311268E-1,-9.280554E-2,1.0824018E0,2.2349249E-1,6.334104E-1,2.593287E-1,1.0633595E0,6.485215E-1,-2.3195511E-1,7.3769964E-2,3.0145577E-1,-9.696646E-3,8.8750225E-1,6.033903E-1,6.3420266E-1,2.8391278E-1,1.0339445E0,7.975689E-1,1.2294844E0,8.7786853E-1,-1.3803768E-2,1.2716024E-2,2.6219284E-2,-4.6303745E-2,4.872833E-3,2.9755844E-2,-3.1713586E-2,1.4027089E-2,2.2564603E-3,2.613296E-2,2.0419039E-2,-9.48903E-3,-2.0771971E-2,-4.2075787E-2,-5.575266E-2,-1.7225813E-2,-3.121374E-2,2.40161E-3,-3.2179456E-2,1.9726628E-3,1.1370184E-2,-1.4321367E-2,-3.7197005E-2,-1.8399335E-2,-1.21096615E-2,8.095318E-3,6.6135265E-2,5.1424033E-3,1.5001963E-2,-1.634723E-2,3.4494787E-2,1.9736838E-2,6.560417E-4,1.8824255E-2,1.4888137E-2,5.5698484E-2,3.902928E-2,2.0714466E-2,-6.903246E-3,-2.4559429E-2,6.4603942E-3,-1.0332167E-2,7.670603E-3,1.9304793E-2,-4.7979094E-3,2.2743529E-2,4.6320822E-2,3.464137E-2,4.2151105E-2,2.7102208E-2,3.4519028E-2,2.1307027E-2,1.0973078E-2,3.294142E-2,5.2344896E-2,2.3260916E-2,5.2428525E-2,3.4153096E-2,6.192571E-2,3.487713E-2,-3.0776083E-2,4.702265E-2],"categories":[],"categories_nodes":[],"categories_segments":[],"categories_sizes":[],"default_left":[0,0,0,0,0,0,0,0,0,0,0,0,0,0,0,0,0,0,0,0,0,0,0,0,0,0,0,0,0,0,0,0,0,0,0,0,0,0,0,0,0,0,0,1,0,0,0,0,0,0,0,0,0,0,0,0,0,0,0,0,0,0,0,0,0,0,0,0,0,0,0,0,0,0,0,0,0,0,0,0,0,0,0,0,0,0,0,0,0,0,0,0,0,0,0,0,0,0,0,0,0,0,0,0,0,0,0,0,0,0,0,0,0,0,0,0,0,0,0,0,0,0,0,0,0],"id":4,"left_children":[1,3,5,7,9,11,13,15,17,19,21,23,25,27,29,31,33,35,37,39,41,43,45,47,49,51,53,55,57,59,61,63,65,67,69,71,73,-1,75,77,79,81,83,85,87,89,91,93,95,97,99,101,103,105,107,109,111,113,115,117,119,121,123,-1,-1,-1,-1,-1,-1,-1,-1,-1,-1,-1,-1,-1,-1,-1,-1,-1,-1,-1,-1,-1,-1,-1,-1,-1,-1,-1,-1,-1,-1,-1,-1,-1,-1,-1,-1,-1,-1,-1,-1,-1,-1,-1,-1,-1,-1,-1,-1,-1,-1,-1,-1,-1,-1,-1,-1,-1,-1,-1,-1,-1,-1],"loss_changes":[1.9589676E4,6.8505215E3,2.6970488E3,1.0924021E3,2.693795E3,2.0010161E3,5.888877E2,6.0433026E2,4.4255084E2,7.4547363E2,5.34718E2,2.5144336E2,2.8697385E2,2.9944043E2,1.1994922E2,2.3751135E2,1.929087E2,3.2301245E2,6.711972E1,6.524238E2,4.4651465E2,6.202566E2,8.298627E1,4.5670044E2,1.2399939E2,2.0635883E2,1.6816388E2,1.2637158E2,1.8939014E2,7.054541E1,1.7378174E1,2.0438031E2,3.9522034E1,1.7549904E2,3.492662E1,1.6612462E2,1.6527246E2,0E0,2.7949814E1,2.4754883E2,1.01951904E2,3.2417725E2,5.787718E1,2.736609E2,3.3853723E2,2.8430832E1,6.5827286E1,1.1329224E2,1.5380469E2,4.456787E1,5.943286E1,9.806833E1,7.589118E1,6.5345795E1,1.0440191E2,3.2190918E1,3.5847473E1,4.1120483E1,6.608264E1,1.7990967E1,7.4117676E1,8.158691E0,1.6061432E1,0E0,0E0,0E0,0E0,0E0,0E0,0E0,0E0,0E0,0E0,0E0,0E0,0E0,0E0,0E0,0E0,0E0,0E0,0E0,0E0,0E0,0E0,0E0,0E0,0E0,0E0,0E0,0E0,0E0,0E0,0E0,0E0,0E0,0E0,0E0,0E0,0E0,0E0,0E0,0E0,0E0,0E0,0E0,0E0,0E0,0E0,0E0,0E0,0E0,0E0,0E0,0E0,0E0,0E0,0E0,0E0,0E0,0E0,0E0,0E0,0E0,0E0],"parents":[2147483647,0,0,1,1,2,2,3,3,4,4,5,5,6,6,7,7,8,8,9,9,10,10,11,11,12,12,13,13,14,14,15,15,16,16,17,17,18,18,19,19,20,20,21,21,22,22,23,23,24,24,25,25,26,26,27,27,28,28,29,29,30,30,31,31,32,32,33,33,34,34,35,35,36,36,38,38,39,39,40,40,41,41,42,42,43,43,44,44,45,45,46,46,47,47,48,48,49,49,50,50,51,51,52,52,53,53,54,54,55,55,56,56,57,57,58,58,59,59,60,60,61,61,62,62],"right_children":[2,4,6,8,10,12,14,16,18,20,22,24,26,28,30,32,34,36,38,40,42,44,46,48,50,52,54,56,58,60,62,64,66,68,70,72,74,-1,76,78,80,82,84,86,88,90,92,94,96,98,100,102,104,106,108,110,112,114,116,118,120,122,124,-1,-1,-1,-1,-1,-1,-1,-1,-1,-1,-1,-1,-1,-1,-1,-1,-1,-1,-1,-1,-1,-1,-1,-1,-1,-1,-1,-1,-1,-1,-1,-1,-1,-1,-1,-1,-1,-1,-1,-1,-1,-1,-1,-1,-1,-1,-1,-1,-1,-1,-1,-1,-1,-1,-1,-1,-1,-1,-1,-1,-1,-1],"split_conditions":[3E0,1.105E1,9E0,1E0,1.6E1,1.08E1,2E1,7E0,1.245E3,6E0,1E0,1E0,5E0,1.08E1,4.1E1,1E0,1E0,4E0,3E0,1E0,1E0,1E0,1E0,1E0,1.5E1,1.6E1,1E0,1E0,1E0,1E0,4E0,1E0,4.25E-1,2.9E1,1E0,1E0,3E0,5.4139413E-2,9.9E0,1E0,1E0,1E0,1.725E0,7.9E1,5E0,1E0,1.24E0,7.8E1,2.3E1,1.3E1,5E0,1E0,1E0,1.3E1,1E0,7.4E1,7.7647057E0,1.2475E1,1E0,1E0,8.833333E0,3E0,1.2E1,-1.3803768E-2,1.2716024E-2,2.6219284E-2,-4.6303745E-2,4.872833E-3,2.9755844E-2,-3.1713586E-2,1.4027089E-2,2.2564603E-3,2.613296E-2,2.0419039E-2,-9.48903E-3,-2.0771971E-2,-4.2075787E-2,-5.575266E-2,-1.7225813E-2,-3.121374E-2,2.40161E-3,-3.2179456E-2,1.9726628E-3,1.1370184E-2,-1.4321367E-2,-3.7197005E-2,-1.8399335E-2,-1.21096615E-2,8.095318E-3,6.6135265E-2,5.1424033E-3,1.5001963E-2,-1.634723E-2,3.4494787E-2,1.9736838E-2,6.560417E-4,1.8824255E-2,1.4888137E-2,5.5698484E-2,3.902928E-2,2.0714466E-2,-6.903246E-3,-2.4559429E-2,6.4603942E-3,-1.0332167E-2,7.670603E-3,1.9304793E-2,-4.7979094E-3,2.2743529E-2,4.6320822E-2,3.464137E-2,4.2151105E-2,2.7102208E-2,3.4519028E-2,2.1307027E-2,1.0973078E-2,3.294142E-2,5.2344896E-2,2.3260916E-2,5.2428525E-2,3.4153096E-2,6.192571E-2,3.487713E-2,-3.0776083E-2,4.702265E-2],"split_indices":[2,89,2,2,43,89,2,1,84,43,16,16,2,89,2,32,32,1,43,2,5,9,1,39,3,43,22,27,39,39,22,16,40,1,16,5,66,0,89,10,10,16,83,84,1,27,83,0,43,43,39,22,66,43,16,0,89,89,16,66,89,26,43,0,0,0,0,0,0,0,0,0,0,0,0,0,0,0,0,0,0,0,0,0,0,0,0,0,0,0,0,0,0,0,0,0,0,0,0,0,0,0,0,0,0,0,0,0,0,0,0,0,0,0,0,0,0,0,0,0,0,0,0,0,0],"split_type":[0,0,0,0,0,0,0,0,0,0,0,0,0,0,0,0,0,0,0,0,0,0,0,0,0,0,0,0,0,0,0,0,0,0,0,0,0,0,0,0,0,0,0,0,0,0,0,0,0,0,0,0,0,0,0,0,0,0,0,0,0,0,0,0,0,0,0,0,0,0,0,0,0,0,0,0,0,0,0,0,0,0,0,0,0,0,0,0,0,0,0,0,0,0,0,0,0,0,0,0,0,0,0,0,0,0,0,0,0,0,0,0,0,0,0,0,0,0,0,0,0,0,0,0,0],"sum_hessian":[1.433313E5,8.952121E4,5.3810098E4,3.4596082E4,5.4925125E4,3.3574477E4,2.0235621E4,1.6780568E4,1.7815516E4,3.0482443E4,2.4442682E4,1.6842537E4,1.6731938E4,1.308358E4,7.1520415E3,1.0344006E4,6.436562E3,1.7168875E4,6.466408E2,1.2121854E4,1.836059E4,2.2763326E4,1.6793563E3,1.3753997E4,3.0885405E3,8.910123E3,7.821814E3,6.8016167E3,6.281964E3,5.1099116E3,2.04213E3,9.742174E3,6.018317E2,6.014584E3,4.219781E2,7.0605527E3,1.0108321E4,2.2616163E1,6.2402466E2,7.75381E3,4.3680435E3,1.7343299E4,1.01729004E3,1.3868379E4,8.894946E3,1.2035963E2,1.5589966E3,8.422684E3,5.331314E3,1.15779E3,1.9307504E3,4.030975E3,4.8791475E3,5.218694E3,2.6031206E3,4.333004E3,2.4686128E3,3.542197E3,2.7397666E3,2.5072175E3,2.602694E3,1.8774752E3,1.6465471E2,8.952282E3,7.8989197E2,1.8802584E1,5.830292E2,5.194923E3,8.1966113E2,3.756136E2,4.6364502E1,6.236656E3,8.238967E2,9.623674E3,4.846474E2,2.982416E2,3.2578305E2,7.3104834E3,4.4332684E2,4.1296016E3,2.3844211E2,1.6618254E4,7.250459E2,6.9911584E2,3.1817422E2,2.3273367E3,1.1541043E4,5.6066904E3,3.2882559E3,9.63683E1,2.3991331E1,1.3690623E3,1.8993436E2,6.809283E3,1.6134001E3,1.7192877E3,3.6120264E3,7.221742E1,1.0855726E3,1.2331476E3,6.976028E2,2.9603257E3,1.0706497E3,4.0742122E3,8.049355E2,1.899353E3,3.3193406E3,2.1961328E3,4.069878E2,3.6080256E3,7.2497815E2,5.0056223E2,1.9680505E3,2.7872942E3,7.54903E2,2.33922E3,4.0054663E2,2.4505625E3,5.665502E1,8.1282007E2,1.789874E3,1.8448308E3,3.2644417E1,6.267375E0,1.5838734E2],"tree_param":{"num_deleted":"0","num_feature":"96","num_nodes":"125","size_leaf_vector":"1"}},{"base_weights":[1.0826975E-3,-3.391298E-1,3.7097996E-1,-7.3192745E-2,-5.916482E-1,1.5137228E-1,6.381537E-1,-2.3992303E-1,1.1720662E-1,-9.1601205E-1,-4.6342087E-1,4.4599053E-1,-7.121388E-2,5.187909E-1,8.995524E-1,-3.655495E-1,-4.695068E-2,5.9500754E-2,5.120819E-1,-1.0074716E0,-6.624729E-1,-5.065184E-1,1.603415E-1,4.630832E-1,-4.5619744E-1,-2.1159825E-1,1.1319961E-1,6.68336E-1,3.0204698E-1,7.806441E-1,1.0596473E0,-4.762584E-1,-1.7421831E-1,6.4747473E-3,-7.116236E-1,-1.1204415E-1,2.54684E-1,6.097408E-1,9.443222E-2,-1.043055E0,-4.3674022E-1,-6.001009E-1,-9.765008E-1,-5.3940505E-1,1.20286345E-1,1.7016321E-2,5.3965116E-1,5.669433E-1,3.17517E-1,-6.169596E-1,2.9821143E-1,-2.4293946E-1,3.0370808E-1,6.8102695E-2,5.126892E-1,7.851032E-1,5.2540624E-1,1.9415297E-1,4.8817986E-1,7.01452E-1,9.246302E-1,1.0067807E0,1.2615851E0,-2.709482E-2,3.841481E-3,-1.183401E-2,1.1659759E-2,-2.361351E-3,2.3566362E-2,5.3840667E-2,-3.9350655E-2,-8.652054E-3,1.144858E-2,9.171167E-3,2.4328306E-2,2.6467144E-2,5.3569693E-2,1.587108E-2,-1.9405011E-2,-5.278116E-2,8.789808E-4,-9.095668E-3,-4.763968E-2,-3.078799E-2,5.5275228E-2,-5.052597E-2,7.145812E-3,-3.1384997E-2,-1.6576422E-2,7.1768085E-3,-4.1608002E-2,-3.9773467E-3,1.2725683E-2,1.9970052E-2,4.3605875E-2,3.1530693E-2,1.9483726E-2,8.479968E-3,3.1081771E-2,6.390371E-2,-3.481653E-2,2.6614636E-2,-4.3831132E-2,-6.5731816E-3,-2.2673808E-2,2.7294472E-2,8.03287E-3,1.3590445E-3,2.1723747E-2,2.6756156E-2,-3.602758E-3,4.3522764E-2,3.382356E-2,2.1188239E-2,3.919983E-2,6.839855E-3,3.2370593E-2,5.8483284E-2,2.2769764E-2,4.2919178E-2,2.8841516E-2,5.4038882E-2,4.3987524E-2,5.882119E-2,4.802766E-2,5.451144E-2,6.663157E-2],"categories":[],"categories_nodes":[],"categories_segments":[],"categories_sizes":[],"default_left":[0,0,0,0,0,0,0,0,0,0,0,0,0,0,0,0,0,0,0,0,0,0,0,0,0,0,0,0,0,0,0,0,0,0,0,0,0,0,0,0,0,0,0,0,1,0,0,0,0,0,0,0,0,0,0,0,0,0,0,0,0,0,0,0,0,0,0,0,0,0,0,0,0,0,0,0,0,0,0,0,0,0,0,0,0,0,0,0,0,0,0,0,0,0,0,0,0,0,0,0,0,0,0,0,0,0,0,0,0,0,0,0,0,0,0,0,0,0,0,0,0,0,0,0,0,0,0],"id":5,"left_children":[1,3,5,7,9,11,13,15,17,19,21,23,25,27,29,31,33,35,37,39,41,43,45,47,49,51,53,55,57,59,61,63,65,67,69,71,73,75,77,79,81,83,85,87,89,91,93,95,97,99,101,103,105,107,109,111,113,115,117,119,121,123,125,-1,-1,-1,-1,-1,-1,-1,-1,-1,-1,-1,-1,-1,-1,-1,-1,-1,-1,-1,-1,-1,-1,-1,-1,-1,-1,-1,-1,-1,-1,-1,-1,-1,-1,-1,-1,-1,-1,-1,-1,-1,-1,-1,-1,-1,-1,-1,-1,-1,-1,-1,-1,-1,-1,-1,-1,-1,-1,-1,-1,-1,-1,-1,-1],"loss_changes":[1.7992418E4,5.001288E3,4.01896E3,1.1515946E3,1.5884619E3,2.4655918E3,9.637285E2,4.6883118E2,3.8588727E2,2.502832E2,7.3613574E2,2.4973096E2,5.5450165E2,6.8751465E2,1.8356152E2,2.4804138E2,2.7084558E2,4.9483112E2,8.801404E1,1.6102441E2,5.566443E1,5.279971E2,9.623153E1,2.3990723E2,3.6733097E1,1.9647583E2,1.6675162E2,2.0910938E2,1.7390594E2,6.276953E1,4.2770508E1,2.6940527E2,1.0935748E2,1.7627954E2,7.735669E1,1.6365744E2,1.1414108E2,6.4381714E1,4.4282364E1,9.9779785E1,6.141873E1,6.474194E1,1.8206116E1,4.46437E2,2.8410112E1,2.9509077E1,2.2287079E1,1.0434424E2,2.974572E2,3.8304382E1,1.5210327E1,2.6900226E2,2.4082512E1,1.2472527E2,1.2355423E1,6.3456543E1,1.4810913E2,1.4254521E2,7.0486694E1,6.976123E1,1.28573E1,2.4547852E1,8.919067E0,0E0,0E0,0E0,0E0,0E0,0E0,0E0,0E0,0E0,0E0,0E0,0E0,0E0,0E0,0E0,0E0,0E0,0E0,0E0,0E0,0E0,0E0,0E0,0E0,0E0,0E0,0E0,0E0,0E0,0E0,0E0,0E0,0E0,0E0,0E0,0E0,0E0,0E0,0E0,0E0,0E0,0E0,0E0,0E0,0E0,0E0,0E0,0E0,0E0,0E0,0E0,0E0,0E0,0E0,0E0,0E0,0E0,0E0,0E0,0E0,0E0,0E0,0E0,0E0],"parents":[2147483647,0,0,1,1,2,2,3,3,4,4,5,5,6,6,7,7,8,8,9,9,10,10,11,11,12,12,13,13,14,14,15,15,16,16,17,17,18,18,19,19,20,20,21,21,22,22,23,23,24,24,25,25,26,26,27,27,28,28,29,29,30,30,31,31,32,32,33,33,34,34,35,35,36,36,37,37,38,38,39,39,40,40,41,41,42,42,43,43,44,44,45,45,46,46,47,47,48,48,49,49,50,50,51,51,52,52,53,53,54,54,55,55,56,56,57,57,58,58,59,59,60,60,61,61,62,62],"right_children":[2,4,6,8,10,12,14,16,18,20,22,24,26,28,30,32,34,36,38,40,42,44,46,48,50,52,54,56,58,60,62,64,66,68,70,72,74,76,78,80,82,84,86,88,90,92,94,96,98,100,102,104,106,108,110,112,114,116,118,120,122,124,126,-1,-1,-1,-1,-1,-1,-1,-1,-1,-1,-1,-1,-1,-1,-1,-1,-1,-1,-1,-1,-1,-1,-1,-1,-1,-1,-1,-1,-1,-1,-1,-1,-1,-1,-1,-1,-1,-1,-1,-1,-1,-1,-1,-1,-1,-1,-1,-1,-1,-1,-1,-1,-1,-1,-1,-1,-1,-1,-1,-1,-1,-1,-1,-1],"split_conditions":[2E0,1.19E1,6E0,5E0,7E0,1.05E1,1.6E1,1E0,1E0,1E0,1E0,1.245E3,1.9E1,1.125E1,2.8E1,1E0,1.245E3,1E0,5E0,1E0,5E0,1E0,5.5E1,1E0,1E0,1E0,1E0,1E0,1E0,1E0,6.2E1,1E0,1E0,1E0,3E0,3E0,1.5E1,2.8E1,1.15E0,1E0,1E0,2E0,2E0,1E0,1.5166667E0,2E0,4E0,9.775E0,1E0,2E0,2.2E1,1E0,1E0,1E0,4.7E1,1.1E0,1E0,1E0,2E0,1.0075E1,1E0,7.8E-1,1E0,-2.709482E-2,3.841481E-3,-1.183401E-2,1.1659759E-2,-2.361351E-3,2.3566362E-2,5.3840667E-2,-3.9350655E-2,-8.652054E-3,1.144858E-2,9.171167E-3,2.4328306E-2,2.6467144E-2,5.3569693E-2,1.587108E-2,-1.9405011E-2,-5.278116E-2,8.789808E-4,-9.095668E-3,-4.763968E-2,-3.078799E-2,5.5275228E-2,-5.052597E-2,7.145812E-3,-3.1384997E-2,-1.6576422E-2,7.1768085E-3,-4.1608002E-2,-3.9773467E-3,1.2725683E-2,1.9970052E-2,4.3605875E-2,3.1530693E-2,1.9483726E-2,8.479968E-3,3.1081771E-2,6.390371E-2,-3.481653E-2,2.6614636E-2,-4.3831132E-2,-6.5731816E-3,-2.2673808E-2,2.7294472E-2,8.03287E-3,1.3590445E-3,2.1723747E-2,2.6756156E-2,-3.602758E-3,4.3522764E-2,3.382356E-2,2.1188239E-2,3.919983E-2,6.839855E-3,3.2370593E-2,5.8483284E-2,2.2769764E-2,4.2919178E-2,2.8841516E-2,5.4038882E-2,4.3987524E-2,5.882119E-2,4.802766E-2,5.451144E-2,6.663157E-2],"split_indices":[2,85,2,1,86,85,2,2,16,2,5,84,86,85,2,9,84,9,82,53,90,16,90,65,95,16,5,65,7,7,2,16,5,5,86,67,1,1,83,5,95,28,81,9,83,5,6,85,16,86,86,82,65,16,86,83,16,16,3,85,35,83,95,0,0,0,0,0,0,0,0,0,0,0,0,0,0,0,0,0,0,0,0,0,0,0,0,0,0,0,0,0,0,0,0,0,0,0,0,0,0,0,0,0,0,0,0,0,0,0,0,0,0,0,0,0,0,0,0,0,0,0,0,0,0,0,0],"split_type":[0,0,0,0,0,0,0,0,0,0,0,0,0,0,0,0,0,0,0,0,0,0,0,0,0,0,0,0,0,0,0,0,0,0,0,0,0,0,0,0,0,0,0,0,0,0,0,0,0,0,0,0,0,0,0,0,0,0,0,0,0,0,0,0,0,0,0,0,0,0,0,0,0,0,0,0,0,0,0,0,0,0,0,0,0,0,0,0,0,0,0,0,0,0,0,0,0,0,0,0,0,0,0,0,0,0,0,0,0,0,0,0,0,0,0,0,0,0,0,0,0,0,0,0,0,0,0],"sum_hessian":[1.4297236E5,7.447456E4,6.849779E4,3.6274137E4,3.8200426E4,3.7596395E4,3.0901395E4,1.933898E4,1.6935158E4,1.082114E4,2.7379285E4,1.6179704E4,2.1416691E4,2.1216342E4,9.685051E3,1.1712898E4,7.6260815E3,1.4776862E4,2.158295E3,7.9502583E3,2.870881E3,2.5610004E4,1.769282E3,1.5879344E4,3.0036053E2,1.215987E4,9.256822E3,1.25531E4,8.663243E3,5.560753E3,4.1242983E3,7.4187446E3,4.2941543E3,7.059629E3,5.664523E2,7.864897E3,6.9119653E3,1.7488921E3,4.0940274E2,7.4828926E3,4.673655E2,2.397585E3,4.7329605E2,2.4333438E4,1.2765653E3,1.2848398E3,4.844421E2,9.265561E3,6.613783E3,2.4774834E2,5.261219E1,1.14632E4,6.9666974E2,8.318902E3,9.379198E2,6.9063916E3,5.6467075E3,5.4855347E3,3.1777087E3,3.591375E3,1.9693779E3,3.2733372E3,8.5096094E2,6.6317393E3,7.8700525E2,3.7236833E3,5.704708E2,6.3293354E3,7.3029376E2,2.2375008E1,5.440773E2,6.671983E3,1.1929141E3,5.2885195E3,1.623446E3,1.4913218E3,2.5757025E2,2.802397E2,1.2916304E2,7.3952666E3,8.762611E1,3.1377573E2,1.5358978E2,2.3764065E3,2.1178415E1,4.5943137E2,1.3864658E1,1.7077715E4,7.2557227E3,1.2469752E3,2.9590162E1,9.13918E2,3.7092188E2,3.4226132E2,1.4218079E2,6.8151655E3,2.450395E3,4.450634E3,2.1631494E3,9.352354E0,2.38396E2,4.4327103E1,8.285089E0,7.495878E3,3.967323E3,2.5765314E2,4.3901663E2,7.4840483E3,8.348538E2,9.0334735E2,3.4572422E1,3.863685E3,3.0427065E3,4.0553513E3,1.5913564E3,4.870516E3,6.150185E2,1.442632E2,3.0334456E3,1.5870159E3,2.0043593E3,4.3451535E2,1.5348627E3,6.9573346E2,2.5776038E3,2.5420041E2,5.9676056E2],"tree_param":{"num_deleted":"0","num_feature":"96","num_nodes":"127","size_leaf_vector":"1"}},{"base_weights":[2.589374E-3,-3.2212314E-1,3.5400224E-1,-1.7474897E-1,-7.658141E-1,1.4703652E-1,6.077845E-1,-3.6693203E-1,2.9879477E-2,-1.0311568E0,-7.190494E-1,4.1460305E-1,-6.173022E-2,5.1505476E-1,8.9493203E-1,-4.7750393E-1,-1.5407868E-1,-2.4464106E-2,4.5867696E-1,-9.4935226E-1,-1.2797003E0,-7.382451E-1,-1.6802984E-1,4.3385625E-1,-5.1348877E-1,-1.917822E-1,1.1250793E-1,6.741591E-1,3.399627E-1,8.205864E-1,1.1152447E0,-5.147788E-1,9.304733E-2,1.4047348E-1,-2.532162E-1,-2.0285805E-1,1.9897681E-1,5.3924483E-1,-3.9692964E-2,-8.2931954E-1,-1.1474848E0,3.5019797E-1,-1.3317602E0,-7.541973E-1,-3.0789072E-2,2.225156E-1,-3.3982602E-1,5.1208556E-1,2.5694802E-1,-6.5245306E-1,1.5643358E-2,-2.2338079E-1,3.176899E-1,2.1972801E-1,-8.474915E-2,7.7864105E-1,5.532601E-1,2.4382663E-1,5.041105E-1,9.4427127E-1,7.003985E-1,1.1437987E0,7.713486E-1,-3.980191E-2,-2.2421833E-2,5.8279564E-3,-8.027061E-2,4.373043E-3,2.6034916E-2,-1.8756865E-2,-2.036922E-3,-3.0281343E-3,-1.6734E-2,6.362939E-3,2.2594482E-2,3.1061625E-2,1.013246E-2,4.020086E-3,-4.06775E-2,-4.235133E-2,3.9078202E-2,-6.260258E-2,-3.6587905E-2,4.388082E-2,-4.6576194E-2,-7.20252E-2,-5.7147115E-2,-3.9515313E-2,-2.315308E-2,1.5477712E-2,-1.6559469E-2,1.50790615E-2,-5.732679E-2,-2.4335174E-2,1.15128365E-4,2.2590732E-2,3.76763E-2,5.517264E-3,2.0667082E-2,5.773405E-2,-3.5703164E-2,-7.473741E-2,1.4543776E-2,-1.5417154E-2,1.4780532E-3,2.2653474E-2,-6.063335E-4,8.316872E-3,2.5300473E-2,-9.047662E-3,1.628568E-2,4.1146297E-2,3.0016953E-2,2.2903733E-2,3.9331272E-2,9.829534E-3,3.0687613E-2,2.9142214E-2,1.5188041E-2,4.7686122E-2,9.822517E-3,4.638112E-2,2.9113594E-2,6.508716E-2,5.506685E-2,-5.2928976E-3,4.4155102E-2],"categories":[],"categories_nodes":[],"categories_segments":[],"categories_sizes":[],"default_left":[0,0,0,0,0,0,0,0,0,0,0,0,0,0,0,0,0,0,0,0,0,0,0,0,0,0,0,0,0,0,0,0,0,0,0,0,0,0,0,0,0,0,0,0,0,0,0,0,0,0,0,0,0,0,0,0,0,0,0,0,0,0,0,0,0,0,0,0,0,0,0,0,0,0,0,0,0,0,0,0,0,0,0,0,0,0,0,0,0,0,0,0,0,0,0,0,0,0,0,0,0,0,0,0,0,0,0,0,0,0,0,0,0,0,0,0,0,0,0,0,0,0,0,0,0,0,0],"id":6,"left_children":[1,3,5,7,9,11,13,15,17,19,21,23,25,27,29,31,33,35,37,39,41,43,45,47,49,51,53,55,57,59,61,63,65,67,69,71,73,75,77,79,81,83,85,87,89,91,93,95,97,99,101,103,105,107,109,111,113,115,117,119,121,123,125,-1,-1,-1,-1,-1,-1,-1,-1,-1,-1,-1,-1,-1,-1,-1,-1,-1,-1,-1,-1,-1,-1,-1,-1,-1,-1,-1,-1,-1,-1,-1,-1,-1,-1,-1,-1,-1,-1,-1,-1,-1,-1,-1,-1,-1,-1,-1,-1,-1,-1,-1,-1,-1,-1,-1,-1,-1,-1,-1,-1,-1,-1,-1,-1],"loss_changes":[1.6286771E4,4.850636E3,3.6003047E3,2.1900164E3,2.2877539E2,2.109121E3,8.194072E2,6.7581055E2,6.2851855E2,5.508667E1,1.662378E2,2.959226E2,4.8064185E2,6.4821875E2,1.2217236E2,4.0198047E2,2.8677246E2,9.542596E2,1.21837585E2,4.86886E1,5.840735E1,1.7149902E2,3.568736E1,2.2424194E2,2.477359E1,1.9559424E2,1.9175735E2,1.53604E2,1.7478394E2,8.291943E1,1.7709229E1,3.3066602E2,4.650381E1,4.9808464E1,1.903136E2,2.4967773E2,1.9272058E2,7.19483E1,3.9389874E1,3.784088E1,3.320227E1,1.5640398E1,1.1944702E1,1.5588672E2,3.4474556E1,1.7963284E1,1.854454E1,1.6323071E2,1.1397565E2,3.0523964E1,2.9961027E1,2.4578888E2,3.1694046E1,8.969125E1,1.26151085E2,5.1137207E1,1.25286255E2,1.22053925E2,6.438452E1,1.9376953E1,7.610339E1,1.0276611E1,1.4623642E1,0E0,0E0,0E0,0E0,0E0,0E0,0E0,0E0,0E0,0E0,0E0,0E0,0E0,0E0,0E0,0E0,0E0,0E0,0E0,0E0,0E0,0E0,0E0,0E0,0E0,0E0,0E0,0E0,0E0,0E0,0E0,0E0,0E0,0E0,0E0,0E0,0E0,0E0,0E0,0E0,0E0,0E0,0E0,0E0,0E0,0E0,0E0,0E0,0E0,0E0,0E0,0E0,0E0,0E0,0E0,0E0,0E0,0E0,0E0,0E0,0E0,0E0,0E0,0E0],"parents":[2147483647,0,0,1,1,2,2,3,3,4,4,5,5,6,6,7,7,8,8,9,9,10,10,11,11,12,12,13,13,14,14,15,15,16,16,17,17,18,18,19,19,20,20,21,21,22,22,23,23,24,24,25,25,26,26,27,27,28,28,29,29,30,30,31,31,32,32,33,33,34,34,35,35,36,36,37,37,38,38,39,39,40,40,41,41,42,42,43,43,44,44,45,45,46,46,47,47,48,48,49,49,50,50,51,51,52,52,53,53,54,54,55,55,56,56,57,57,58,58,59,59,60,60,61,61,62,62],"right_children":[2,4,6,8,10,12,14,16,18,20,22,24,26,28,30,32,34,36,38,40,42,44,46,48,50,52,54,56,58,60,62,64,66,68,70,72,74,76,78,80,82,84,86,88,90,92,94,96,98,100,102,104,106,108,110,112,114,116,118,120,122,124,126,-1,-1,-1,-1,-1,-1,-1,-1,-1,-1,-1,-1,-1,-1,-1,-1,-1,-1,-1,-1,-1,-1,-1,-1,-1,-1,-1,-1,-1,-1,-1,-1,-1,-1,-1,-1,-1,-1,-1,-1,-1,-1,-1,-1,-1,-1,-1,-1,-1,-1,-1,-1,-1,-1,-1,-1,-1,-1,-1,-1,-1,-1,-1,-1],"split_conditions":[2E0,3.303846E2,6E0,4E0,2.5E1,1.055E1,1.9E1,1E0,1E0,1E0,1E0,3.303846E2,1.9E1,1.08E1,4.2E1,1E0,1.01E1,1E0,8E1,1E0,8.75E-1,1E0,9E0,7.2E1,1E0,1E0,1E0,1E0,1E0,1E0,4E0,1E1,3.5E1,1E0,1E0,1.05E1,1E0,2E0,6E0,1.5E1,8E0,3E0,3E0,2E0,1E0,8.3E1,2E0,1E0,1E0,2E0,1.3E1,1E0,2E0,1E0,1E0,7.4E1,1E0,1E0,6.1E1,1E0,9.1E0,3E0,2E1,-3.980191E-2,-2.2421833E-2,5.8279564E-3,-8.027061E-2,4.373043E-3,2.6034916E-2,-1.8756865E-2,-2.036922E-3,-3.0281343E-3,-1.6734E-2,6.362939E-3,2.2594482E-2,3.1061625E-2,1.013246E-2,4.020086E-3,-4.06775E-2,-4.235133E-2,3.9078202E-2,-6.260258E-2,-3.6587905E-2,4.388082E-2,-4.6576194E-2,-7.20252E-2,-5.7147115E-2,-3.9515313E-2,-2.315308E-2,1.5477712E-2,-1.6559469E-2,1.50790615E-2,-5.732679E-2,-2.4335174E-2,1.15128365E-4,2.2590732E-2,3.76763E-2,5.517264E-3,2.0667082E-2,5.773405E-2,-3.5703164E-2,-7.473741E-2,1.4543776E-2,-1.5417154E-2,1.4780532E-3,2.2653474E-2,-6.063335E-4,8.316872E-3,2.5300473E-2,-9.047662E-3,1.628568E-2,4.1146297E-2,3.0016953E-2,2.2903733E-2,3.9331272E-2,9.829534E-3,3.0687613E-2,2.9142214E-2,1.5188041E-2,4.7686122E-2,9.822517E-3,4.638112E-2,2.9113594E-2,6.508716E-2,5.506685E-2,-5.2928976E-3,4.4155102E-2],"split_indices":[2,84,2,1,0,42,2,2,16,19,48,84,43,42,2,48,42,9,0,7,87,16,43,0,95,16,65,65,7,39,65,43,43,48,9,42,48,66,39,44,43,39,19,8,1,0,48,16,95,43,43,9,65,48,16,0,16,16,0,27,42,44,43,0,0,0,0,0,0,0,0,0,0,0,0,0,0,0,0,0,0,0,0,0,0,0,0,0,0,0,0,0,0,0,0,0,0,0,0,0,0,0,0,0,0,0,0,0,0,0,0,0,0,0,0,0,0,0,0,0,0,0,0,0,0,0,0],"split_type":[0,0,0,0,0,0,0,0,0,0,0,0,0,0,0,0,0,0,0,0,0,0,0,0,0,0,0,0,0,0,0,0,0,0,0,0,0,0,0,0,0,0,0,0,0,0,0,0,0,0,0,0,0,0,0,0,0,0,0,0,0,0,0,0,0,0,0,0,0,0,0,0,0,0,0,0,0,0,0,0,0,0,0,0,0,0,0,0,0,0,0,0,0,0,0,0,0,0,0,0,0,0,0,0,0,0,0,0,0,0,0,0,0,0,0,0,0,0,0,0,0,0,0,0,0,0,0],"sum_hessian":[1.4272902E5,7.418275E4,6.8546266E4,5.568732E4,1.849543E4,3.7756492E4,3.078977E4,2.8716527E4,2.6970795E4,2.7681145E3,1.5727314E4,1.6547436E4,2.1209057E4,2.3275959E4,7.5138115E3,1.8898166E4,9.81836E3,2.3937965E4,3.032831E3,2.0862693E3,6.818452E2,1.5197542E4,5.297722E2,1.6211658E4,3.3577713E2,1.2144361E4,9.064696E3,1.219324E4,1.1082718E4,5.621524E3,1.8922875E3,1.773933E4,1.1588358E3,2.4723193E3,7.3460405E3,1.3310795E4,1.0627169E4,2.6106968E3,4.221344E2,1.3024214E3,7.838479E2,2.0927212E1,6.60918E2,1.486235E4,3.3519223E2,1.6175598E2,3.6801624E2,1.1239587E4,4.9720713E3,2.6575076E2,7.0026344E1,1.1435658E4,7.0870325E2,5.8725356E3,3.1921602E3,6.5377876E3,5.655453E3,6.9908755E3,4.0918428E3,2.767078E3,2.8544463E3,1.7450671E3,1.472203E2,3.3835725E3,1.4355758E4,1.1439316E3,1.4904084E1,2.1708762E3,3.0144318E2,4.6672046E3,2.678836E3,6.4018115E3,6.9089834E3,8.280566E3,2.3466025E3,2.0986611E3,5.1203564E2,3.662E2,5.593439E1,1.2887296E3,1.3691754E1,6.247054E2,1.5914249E2,1.5049674E1,5.877538E0,4.1517926E2,2.4573877E2,1.3220877E4,1.6414727E3,1.5713414E2,1.780581E2,1.5366142E2,8.09456E0,2.5718353E2,1.1083269E2,8.996625E3,2.2429624E3,2.5672483E3,2.4048228E3,8.176554E0,2.5757422E2,1.0110744E1,5.9915596E1,8.560123E3,2.875535E3,5.0219424E2,2.06509E2,4.950807E3,9.2172864E2,2.586497E3,6.0566296E2,5.234162E3,1.3036251E3,4.0190994E3,1.6363539E3,6.200644E3,7.902311E2,2.9361008E3,1.1557421E3,2.7322712E3,3.4806545E1,9.740153E2,1.8804309E3,3.634583E2,1.3816088E3,1.664199E1,1.3057831E2],"tree_param":{"num_deleted":"0","num_feature":"96","num_nodes":"127","size_leaf_vector":"1"}},{"base_weights":[3.3345234E-3,2.7445263E-1,-2.4231519E-1,4.081857E-1,1.3262314E-1,-3.7358823E-1,-5.3462576E-2,4.8233E-1,1.8398313E-1,1.8470764E-2,2.5525364E-1,-5.9574664E-1,-2.905134E-1,-9.0626724E-2,3.893283E-1,4.2339373E-1,7.360641E-1,2.2494341E-1,-3.355994E-1,-8.9699246E-2,4.957729E-1,2.8926608E-1,-3.1538132E-1,-6.6533864E-1,-3.4990752E-1,-3.7034276E-1,-8.751692E-2,-1.2957051E-1,3.3896104E-1,1.2167625E0,2.689425E-1,2.968945E-1,5.6027764E-1,8.098744E-1,3.5264805E-1,2.73541E-1,-7.660063E-2,-6.0561E-1,-8.307628E-2,-2.556663E-1,2.77585E-2,5.477095E-1,-3.288965E-1,2.4543245E-1,4.9398878E-1,1.6168936E-1,-4.1763067E-1,-8.385909E-1,-5.5563664E-1,-7.324863E-2,-4.7948956E-1,-4.0210733E-1,1.3960601E-1,3.391872E-1,-1.6435617E-1,-2.3324691E-1,-1.499832E-2,2.3273085E-1,5.1868767E-1,1.4227188E0,5.267651E-1,3.204296E-1,-4.6988922E-1,-4.8299674E-3,1.8761015E-2,-2.5689262E-3,2.8841693E-2,4.2982537E-2,2.2476126E-2,2.5865078E-2,1.6867289E-3,1.6104242E-2,4.175494E-3,4.9421294E-3,-1.7493771E-2,-3.7598595E-2,3.7046603E-3,3.969187E-3,-2.4069143E-2,-1.4363621E-2,2.0941872E-2,8.229117E-3,-6.3069165E-3,2.9772354E-2,1.0166242E-2,1.7403213E-2,-2.9682761E-2,1.0676626E-2,2.7498176E-2,2.8722484E-2,3.7857578E-3,-3.0604595E-2,1.6764289E-2,3.2972384E-2,-2.2438465E-2,-1.3223221E-2,-4.3625165E-2,-2.1050436E-2,-3.5071813E-2,-1.8300966E-3,-8.1622384E-2,-4.796147E-2,-2.1504972E-2,-2.3340449E-2,-1.0343265E-2,8.969561E-3,-3.8190663E-2,2.1511547E-2,-1.3769217E-2,-9.794925E-3,1.06219E-2,-1.5961705E-2,-3.1038944E-3,-2.0724165E-3,3.3528835E-2,2.9534152E-2,8.58154E-3,3.245856E-2,1.1256825E-2,7.653728E-2,4.3953434E-2,6.72738E-2,7.785849E-3,2.3053452E-2,5.886288E-3,-8.164137E-3,-6.978764E-2],"categories":[],"categories_nodes":[],"categories_segments":[],"categories_sizes":[],"default_left":[0,0,0,0,0,0,0,0,0,0,0,0,0,0,0,0,0,0,0,0,0,0,0,0,0,0,0,0,0,0,0,0,0,0,0,0,0,0,0,0,0,0,0,0,0,0,0,0,0,0,0,0,0,0,0,0,0,0,0,0,0,0,0,0,0,0,0,0,0,0,0,0,0,0,0,0,0,0,0,0,0,0,0,0,0,0,0,0,0,0,0,0,0,0,0,0,0,0,0,0,0,0,0,0,0,0,0,0,0,0,0,0,0,0,0,0,0,0,0,0,0,0,0,0,0,0,0],"id":7,"left_children":[1,3,5,7,9,11,13,15,17,19,21,23,25,27,29,31,33,35,37,39,41,43,45,47,49,51,53,55,57,59,61,63,65,67,69,71,73,75,77,79,81,83,85,87,89,91,93,95,97,99,101,103,105,107,109,111,113,115,117,119,121,123,125,-1,-1,-1,-1,-1,-1,-1,-1,-1,-1,-1,-1,-1,-1,-1,-1,-1,-1,-1,-1,-1,-1,-1,-1,-1,-1,-1,-1,-1,-1,-1,-1,-1,-1,-1,-1,-1,-1,-1,-1,-1,-1,-1,-1,-1,-1,-1,-1,-1,-1,-1,-1,-1,-1,-1,-1,-1,-1,-1,-1,-1,-1,-1,-1],"loss_changes":[9.486525E3,1.2842227E3,1.8526328E3,5.792212E2,4.6001324E2,8.1345996E2,5.0433633E2,3.9130762E2,1.844277E2,8.787986E2,3.0757324E2,2.0502979E2,5.199697E2,4.7305115E2,2.3606543E2,3.6786377E2,1.393728E2,1.176933E2,4.3135612E1,2.7051773E2,1.3487231E2,1.3405286E2,4.3562157E1,1.7723438E2,9.493564E1,3.731228E2,2.9706506E2,3.0793362E2,4.4752625E1,4.2045105E1,7.900856E1,3.40549E2,1.03391846E2,7.382739E1,4.1907555E1,6.376837E1,5.350585E1,3.0490395E1,2.1291494E1,1.2271942E2,1.7114221E2,4.8522217E1,3.3712883E1,1.19536804E2,8.8664E1,2.1441484E1,2.4931839E1,7.030737E1,1.121322E2,4.8291103E1,4.233029E1,2.7378833E2,4.8703888E1,7.748117E1,9.12818E1,2.0028302E2,2.2335919E2,3.2246056E1,3.326642E1,1.2239899E1,2.1301725E1,5.521039E1,3.82249E1,0E0,0E0,0E0,0E0,0E0,0E0,0E0,0E0,0E0,0E0,0E0,0E0,0E0,0E0,0E0,0E0,0E0,0E0,0E0,0E0,0E0,0E0,0E0,0E0,0E0,0E0,0E0,0E0,0E0,0E0,0E0,0E0,0E0,0E0,0E0,0E0,0E0,0E0,0E0,0E0,0E0,0E0,0E0,0E0,0E0,0E0,0E0,0E0,0E0,0E0,0E0,0E0,0E0,0E0,0E0,0E0,0E0,0E0,0E0,0E0,0E0,0E0,0E0,0E0],"parents":[2147483647,0,0,1,1,2,2,3,3,4,4,5,5,6,6,7,7,8,8,9,9,10,10,11,11,12,12,13,13,14,14,15,15,16,16,17,17,18,18,19,19,20,20,21,21,22,22,23,23,24,24,25,25,26,26,27,27,28,28,29,29,30,30,31,31,32,32,33,33,34,34,35,35,36,36,37,37,38,38,39,39,40,40,41,41,42,42,43,43,44,44,45,45,46,46,47,47,48,48,49,49,50,50,51,51,52,52,53,53,54,54,55,55,56,56,57,57,58,58,59,59,60,60,61,61,62,62],"right_children":[2,4,6,8,10,12,14,16,18,20,22,24,26,28,30,32,34,36,38,40,42,44,46,48,50,52,54,56,58,60,62,64,66,68,70,72,74,76,78,80,82,84,86,88,90,92,94,96,98,100,102,104,106,108,110,112,114,116,118,120,122,124,126,-1,-1,-1,-1,-1,-1,-1,-1,-1,-1,-1,-1,-1,-1,-1,-1,-1,-1,-1,-1,-1,-1,-1,-1,-1,-1,-1,-1,-1,-1,-1,-1,-1,-1,-1,-1,-1,-1,-1,-1,-1,-1,-1,-1,-1,-1,-1,-1,-1,-1,-1,-1,-1,-1,-1,-1,-1,-1,-1,-1,-1,-1,-1,-1],"split_conditions":[1.13E1,9.6E0,1.7E1,7.4E1,1E0,3.6E1,1E0,1E0,1E0,1E0,1E0,8E0,1E0,1E0,1E0,1E0,2E0,4.8E1,1.05E2,2.1E1,8.3E1,1E0,5.4E1,2.5E1,1E0,1E0,3E0,1E0,2E0,1.1333333E1,8.1E1,1E1,1.1E1,1.4666667E0,5E0,8.7E1,3E0,1.5E2,8.775E0,1E0,6.3E1,2E0,1.3E1,3.25E0,7.9E1,2.2E1,1E0,6.142857E-1,3E0,3E0,2.1E1,1E0,8.5E1,1E0,1E0,6.3E1,3.5714285E0,1.155E1,6.9E1,2E0,1E1,8.857143E-1,5E0,-4.8299674E-3,1.8761015E-2,-2.5689262E-3,2.8841693E-2,4.2982537E-2,2.2476126E-2,2.5865078E-2,1.6867289E-3,1.6104242E-2,4.175494E-3,4.9421294E-3,-1.7493771E-2,-3.7598595E-2,3.7046603E-3,3.969187E-3,-2.4069143E-2,-1.4363621E-2,2.0941872E-2,8.229117E-3,-6.3069165E-3,2.9772354E-2,1.0166242E-2,1.7403213E-2,-2.9682761E-2,1.0676626E-2,2.7498176E-2,2.8722484E-2,3.7857578E-3,-3.0604595E-2,1.6764289E-2,3.2972384E-2,-2.2438465E-2,-1.3223221E-2,-4.3625165E-2,-2.1050436E-2,-3.5071813E-2,-1.8300966E-3,-8.1622384E-2,-4.796147E-2,-2.1504972E-2,-2.3340449E-2,-1.0343265E-2,8.969561E-3,-3.8190663E-2,2.1511547E-2,-1.3769217E-2,-9.794925E-3,1.06219E-2,-1.5961705E-2,-3.1038944E-3,-2.0724165E-3,3.3528835E-2,2.9534152E-2,8.58154E-3,3.245856E-2,1.1256825E-2,7.653728E-2,4.3953434E-2,6.72738E-2,7.785849E-3,2.3053452E-2,5.886288E-3,-8.164137E-3,-6.978764E-2],"split_indices":[85,42,86,0,6,0,16,16,32,16,12,44,7,5,90,6,66,86,90,86,0,5,0,0,90,16,44,6,5,42,0,44,86,40,82,0,82,41,85,5,0,66,44,40,0,90,61,40,90,32,0,19,0,35,5,90,40,85,0,61,44,40,82,0,0,0,0,0,0,0,0,0,0,0,0,0,0,0,0,0,0,0,0,0,0,0,0,0,0,0,0,0,0,0,0,0,0,0,0,0,0,0,0,0,0,0,0,0,0,0,0,0,0,0,0,0,0,0,0,0,0,0,0,0,0,0,0],"split_type":[0,0,0,0,0,0,0,0,0,0,0,0,0,0,0,0,0,0,0,0,0,0,0,0,0,0,0,0,0,0,0,0,0,0,0,0,0,0,0,0,0,0,0,0,0,0,0,0,0,0,0,0,0,0,0,0,0,0,0,0,0,0,0,0,0,0,0,0,0,0,0,0,0,0,0,0,0,0,0,0,0,0,0,0,0,0,0,0,0,0,0,0,0,0,0,0,0,0,0,0,0,0,0,0,0,0,0,0,0,0,0,0,0,0,0,0,0,0,0,0,0,0,0,0,0,0,0],"sum_hessian":[1.4243814E5,6.7709055E4,7.472909E4,3.4848254E4,3.28608E4,4.4084562E4,3.0644527E4,2.6187004E4,8.661253E3,1.7019297E4,1.5841506E4,1.1996744E4,3.208782E4,2.8272377E4,2.3721504E3,2.1253096E4,4.9339077E3,8.0288784E3,6.323741E2,1.3875527E4,3.1437703E3,1.495086E4,8.9064557E2,9.348631E3,2.6481128E3,2.303024E4,9.05758E3,2.592305E4,2.3493262E3,3.0013803E2,2.0720122E3,1.1047177E4,1.0205918E4,4.136491E3,7.9741614E2,6.9145977E3,1.114281E3,3.0492957E2,3.2744452E2,5.749849E3,8.1256777E3,2.957826E3,1.859442E2,1.2316045E4,2.6348157E3,1.5709535E2,7.335502E2,3.6219092E3,5.7267217E3,8.4518976E2,1.802923E3,2.168001E4,1.3502292E3,1.3816393E3,7.675941E3,1.3608069E4,1.231498E4,1.4780167E3,8.713095E2,2.3032637E2,6.981164E1,1.9375558E3,1.3445647E2,1.8338804E3,9.213297E3,2.689167E2,9.937002E3,3.6332375E3,5.0325372E2,5.254874E2,2.719287E2,5.5071025E3,1.4074951E3,6.7899963E2,4.352814E2,2.5081477E2,5.4114796E1,2.331491E2,9.429542E1,5.4930293E3,2.5682007E2,4.301398E3,3.8242795E3,2.5970957E3,3.6073026E2,5.2188625E1,1.3375558E2,1.1149794E4,1.1662506E3,2.2094275E3,4.2538803E2,2.8323122E1,1.2877223E2,2.0044317E1,7.1350586E2,2.0249675E2,3.4194124E3,2.9794526E3,2.7472693E3,8.2678094E2,1.8408806E1,1.6656923E2,1.6363538E3,1.6282671E4,5.3973394E3,1.294043E3,5.6186256E1,1.2036311E3,1.7800818E2,7.0834487E3,5.924921E2,9.057266E3,4.550804E3,1.1858413E4,4.565671E2,2.14239E2,1.2637777E3,6.023524E2,2.689571E2,1.9063106E2,3.9695328E1,2.0953024E1,4.8858616E1,1.1431464E3,7.944094E2,1.018909E2,3.2565563E1],"tree_param":{"num_deleted":"0","num_feature":"96","num_nodes":"127","size_leaf_vector":"1"}},{"base_weights":[-2.904188E-3,-2.1584406E-1,4.823909E-1,4.97422E-2,-4.2948064E-1,3.7692764E-1,7.739887E-1,-1.396156E-1,1.9191885E-1,-5.892931E-1,-2.1849187E-1,5.7518154E-1,2.0957115E-1,7.017394E-1,9.927556E-1,-3.458403E-1,-1.7557997E-2,2.2015485E-1,-6.077668E-1,-7.183686E-1,-4.149757E-1,-2.6091293E-1,2.6178154E-1,6.543695E-1,4.150427E-1,2.9991758E-1,3.1951584E-2,8.051497E-1,6.0135853E-1,9.169023E-1,1.1203282E0,-3.8361272E-1,1.1362293E-1,2.4750568E-2,-5.8991075E-1,1.692639E-1,5.030064E-1,1.0499755E-1,-7.054838E-1,-9.5862323E-1,-5.730008E-1,-4.6773556E-1,-1.8644002E-1,-2.994239E-1,2.2096322E-1,-1.0214514E-1,3.8309932E-1,6.089124E-1,9.043185E-1,-3.4798626E-2,4.4935158E-1,4.7199625E-1,2.079125E-1,-4.0181346E-2,4.036223E-1,8.3987397E-1,6.2294424E-1,7.5068414E-1,4.666345E-1,9.374202E-1,3.8354725E-1,9.455077E-1,1.2055215E0,-2.0834196E-2,3.3352096E-3,-3.167915E-3,2.2798683E-2,-1.3380524E-3,2.0823305E-2,-3.3973355E-2,9.7548785E-3,-5.2659994E-4,1.5902467E-2,2.8879667E-2,2.8383597E-3,1.80033E-2,-4.1389767E-2,-3.7693333E-2,5.735069E-3,-4.8815854E-2,3.1355083E-2,-3.0429656E-2,3.769739E-3,-2.476954E-2,3.3812174E-3,-2.447585E-3,-1.8677913E-2,-1.786305E-2,-2.6814889E-3,5.020879E-2,7.122519E-3,-4.74796E-2,-2.5329615E-3,2.244655E-2,-1.3050712E-2,3.3666376E-2,1.5225462E-2,4.7975954E-2,2.1121046E-2,1.6654454E-2,-9.788184E-3,-8.354923E-2,2.2789963E-2,1.8857254E-2,2.8984064E-2,4.5655225E-3,1.7704112E-2,-8.693272E-3,5.1592696E-3,2.2861648E-2,-3.952545E-2,3.8459595E-2,4.534973E-2,1.80042E-2,3.9728265E-2,3.2632988E-2,4.2679828E-2,5.5973507E-2,2.2169007E-2,5.5451173E-2,4.4597957E-2,6.413596E-2,1.1891117E-2,2.3662074E-2,5.2227672E-2,4.3535836E-2,6.157578E-2],"categories":[],"categories_nodes":[],"categories_segments":[],"categories_sizes":[],"default_left":[0,0,0,0,0,0,0,0,0,0,0,0,0,0,0,0,0,0,0,0,0,0,0,0,0,0,0,0,0,0,0,0,0,0,0,0,0,0,0,0,0,0,0,0,0,0,0,0,0,0,1,0,0,0,0,0,0,0,0,0,0,0,0,0,0,0,0,0,0,0,0,0,0,0,0,0,0,0,0,0,0,0,0,0,0,0,0,0,0,0,0,0,0,0,0,0,0,0,0,0,0,0,0,0,0,0,0,0,0,0,0,0,0,0,0,0,0,0,0,0,0,0,0,0,0,0,0],"id":8,"left_children":[1,3,5,7,9,11,13,15,17,19,21,23,25,27,29,31,33,35,37,39,41,43,45,47,49,51,53,55,57,59,61,63,65,67,69,71,73,75,77,79,81,83,85,87,89,91,93,95,97,99,101,103,105,107,109,111,113,115,117,119,121,123,125,-1,-1,-1,-1,-1,-1,-1,-1,-1,-1,-1,-1,-1,-1,-1,-1,-1,-1,-1,-1,-1,-1,-1,-1,-1,-1,-1,-1,-1,-1,-1,-1,-1,-1,-1,-1,-1,-1,-1,-1,-1,-1,-1,-1,-1,-1,-1,-1,-1,-1,-1,-1,-1,-1,-1,-1,-1,-1,-1,-1,-1,-1,-1,-1],"loss_changes":[1.4694492E4,5.6076235E3,1.333331E3,1.1862172E3,1.8467354E3,1.0566113E3,1.8134521E2,4.7561523E2,5.6836774E2,7.009297E2,4.8105554E2,1.8459766E2,2.7715967E2,8.942529E1,2.6619385E1,1.2196936E2,2.874761E2,3.4981738E2,5.986966E1,6.2479297E2,1.598125E2,4.0262988E2,8.465434E1,1.1026123E2,7.4503845E1,1.811565E2,1.5616911E2,2.6451416E1,8.8148926E1,1.9307373E1,1.465918E1,9.6708984E1,3.241123E1,2.23075E2,5.758017E1,5.511497E2,1.2331964E2,2.5132774E1,3.0052795E1,1.8994922E2,2.5754736E2,1.5954028E2,6.40147E1,2.8554932E2,9.860952E1,2.0892532E1,6.107434E1,1.6166504E2,3.946216E1,2.0373425E1,6.206958E1,4.0513E1,1.2714307E2,9.352291E1,6.0971634E1,1.6277344E1,3.0675385E1,2.0474365E1,3.4651886E1,1.2506226E1,8.640181E0,1.5980408E1,5.1033936E0,0E0,0E0,0E0,0E0,0E0,0E0,0E0,0E0,0E0,0E0,0E0,0E0,0E0,0E0,0E0,0E0,0E0,0E0,0E0,0E0,0E0,0E0,0E0,0E0,0E0,0E0,0E0,0E0,0E0,0E0,0E0,0E0,0E0,0E0,0E0,0E0,0E0,0E0,0E0,0E0,0E0,0E0,0E0,0E0,0E0,0E0,0E0,0E0,0E0,0E0,0E0,0E0,0E0,0E0,0E0,0E0,0E0,0E0,0E0,0E0,0E0,0E0,0E0,0E0],"parents":[2147483647,0,0,1,1,2,2,3,3,4,4,5,5,6,6,7,7,8,8,9,9,10,10,11,11,12,12,13,13,14,14,15,15,16,16,17,17,18,18,19,19,20,20,21,21,22,22,23,23,24,24,25,25,26,26,27,27,28,28,29,29,30,30,31,31,32,32,33,33,34,34,35,35,36,36,37,37,38,38,39,39,40,40,41,41,42,42,43,43,44,44,45,45,46,46,47,47,48,48,49,49,50,50,51,51,52,52,53,53,54,54,55,55,56,56,57,57,58,58,59,59,60,60,61,61,62,62],"right_children":[2,4,6,8,10,12,14,16,18,20,22,24,26,28,30,32,34,36,38,40,42,44,46,48,50,52,54,56,58,60,62,64,66,68,70,72,74,76,78,80,82,84,86,88,90,92,94,96,98,100,102,104,106,108,110,112,114,116,118,120,122,124,126,-1,-1,-1,-1,-1,-1,-1,-1,-1,-1,-1,-1,-1,-1,-1,-1,-1,-1,-1,-1,-1,-1,-1,-1,-1,-1,-1,-1,-1,-1,-1,-1,-1,-1,-1,-1,-1,-1,-1,-1,-1,-1,-1,-1,-1,-1,-1,-1,-1,-1,-1,-1,-1,-1,-1,-1,-1,-1,-1,-1,-1,-1,-1,-1],"split_conditions":[4E0,1.1366667E1,1.4E1,1E0,1.6E1,1.0366667E1,3.4E1,3.5E1,1.245E3,1E0,1E0,2E0,1E0,1E0,5.6E1,1E0,1E0,1E0,1E0,1E0,1E0,1E0,1.9E1,1E0,1.8E1,1.185E1,1E0,1.21E1,1.0025E1,5E1,1E0,1E0,2E0,1E0,2E0,1E0,2E0,1E0,2E0,2E0,1E0,1E0,1.59E2,2E0,1E0,8.95E1,1.8475E2,1E0,2.88E2,8.328571E0,6.7E1,1E0,7E0,7E0,3E0,1E0,1.9E1,1E0,5E0,7.75E-1,1.9E1,1E1,1.03166664E2,-2.0834196E-2,3.3352096E-3,-3.167915E-3,2.2798683E-2,-1.3380524E-3,2.0823305E-2,-3.3973355E-2,9.7548785E-3,-5.2659994E-4,1.5902467E-2,2.8879667E-2,2.8383597E-3,1.80033E-2,-4.1389767E-2,-3.7693333E-2,5.735069E-3,-4.8815854E-2,3.1355083E-2,-3.0429656E-2,3.769739E-3,-2.476954E-2,3.3812174E-3,-2.447585E-3,-1.8677913E-2,-1.786305E-2,-2.6814889E-3,5.020879E-2,7.122519E-3,-4.74796E-2,-2.5329615E-3,2.244655E-2,-1.3050712E-2,3.3666376E-2,1.5225462E-2,4.7975954E-2,2.1121046E-2,1.6654454E-2,-9.788184E-3,-8.354923E-2,2.2789963E-2,1.8857254E-2,2.8984064E-2,4.5655225E-3,1.7704112E-2,-8.693272E-3,5.1592696E-3,2.2861648E-2,-3.952545E-2,3.8459595E-2,4.534973E-2,1.80042E-2,3.9728265E-2,3.2632988E-2,4.2679828E-2,5.5973507E-2,2.2169007E-2,5.5451173E-2,4.4597957E-2,6.413596E-2,1.1891117E-2,2.3662074E-2,5.2227672E-2,4.3535836E-2,6.157578E-2],"split_indices":[2,85,2,2,43,42,2,90,84,2,5,22,22,82,2,5,32,16,90,43,9,16,90,16,90,85,16,42,42,43,95,16,9,16,33,6,23,11,9,10,5,16,84,9,90,41,84,82,90,42,84,95,2,2,23,95,2,95,3,87,3,90,41,0,0,0,0,0,0,0,0,0,0,0,0,0,0,0,0,0,0,0,0,0,0,0,0,0,0,0,0,0,0,0,0,0,0,0,0,0,0,0,0,0,0,0,0,0,0,0,0,0,0,0,0,0,0,0,0,0,0,0,0,0,0,0,0],"split_type":[0,0,0,0,0,0,0,0,0,0,0,0,0,0,0,0,0,0,0,0,0,0,0,0,0,0,0,0,0,0,0,0,0,0,0,0,0,0,0,0,0,0,0,0,0,0,0,0,0,0,0,0,0,0,0,0,0,0,0,0,0,0,0,0,0,0,0,0,0,0,0,0,0,0,0,0,0,0,0,0,0,0,0,0,0,0,0,0,0,0,0,0,0,0,0,0,0,0,0,0,0,0,0,0,0,0,0,0,0,0,0,0,0,0,0,0,0,0,0,0,0,0,0,0,0,0,0],"sum_hessian":[1.421954E5,9.883064E4,4.3364777E4,4.405884E4,5.4771797E4,3.1848354E4,1.1516422E4,1.889439E4,2.5164451E4,3.1164553E4,2.3607242E4,1.4577324E4,1.727103E4,8.660452E3,2.8559702E3,7.0243813E3,1.1870009E4,2.4306926E4,8.575253E2,1.7904111E4,1.3260442E4,2.1691736E4,1.9155063E3,9.751943E3,4.825381E3,1.1447537E4,5.8234927E3,4.2623955E3,4.398056E3,1.7961722E3,1.0597979E3,6.490928E3,5.334533E2,1.1053859E4,8.1614935E2,2.0601822E4,3.7051033E3,1.03379974E2,7.541454E2,6.747191E3,1.115692E4,1.0772461E4,2.4879817E3,2.00868E4,1.6049353E3,4.7894235E2,1.436564E3,8.254223E3,1.4977212E3,3.419453E2,4.4834355E3,3.9868088E3,7.4607275E3,4.8777275E3,9.457653E2,3.5770754E3,6.8531995E2,2.0838186E3,2.3142375E3,1.7289045E3,6.726773E1,3.5120554E2,7.085923E2,6.046918E3,4.4400992E2,3.5219693E2,1.812564E2,9.770009E3,1.28385E3,7.326955E2,8.345388E1,9.329165E3,1.1272657E4,3.1742473E3,5.30856E2,8.166343E1,2.1716545E1,7.122127E2,4.1932682E1,6.6731157E3,7.4075485E1,1.0576411E4,5.8050854E2,1.024339E4,5.290713E2,1.4349149E3,1.0530667E3,1.6260206E4,3.8265945E3,1.451534E2,1.459782E3,2.6432093E1,4.5251025E2,1.3036294E3,1.3293452E2,6.8116E3,1.442622E3,1.3429028E3,1.5481839E2,1.0375123E2,2.3819408E2,1.2809616E1,4.470626E3,2.1221116E3,1.8646973E3,4.1510166E3,3.309711E3,2.5239893E3,2.353738E3,9.0572003E2,4.004531E1,1.7483828E3,1.8286927E3,2.7192664E2,4.133933E2,1.0710151E3,1.0128034E3,7.7977745E1,2.23626E3,3.57195E2,1.3717096E3,8.293249E0,5.897448E1,6.18886E1,2.8931696E2,5.3536762E1,6.550555E2],"tree_param":{"num_deleted":"0","num_feature":"96","num_nodes":"127","size_leaf_vector":"1"}},{"base_weights":[9.961135E-4,2.8330797E-1,-1.9244929E-1,2.3314005E-1,5.71816E-1,-3.1464723E-1,1.1512573E-2,1.0399371E-1,3.8576552E-1,7.188232E-1,4.0767244E-1,-4.4083208E-1,-1.8889949E-1,-4.9731124E-2,2.088635E-1,1.3260081E-1,-5.2600574E-1,4.4469652E-1,1.424117E-1,1.144238E0,6.7319775E-1,4.9114853E-1,2.2891376E-2,-5.2696157E-1,-2.6068795E-1,-6.154448E-1,-1.324248E-1,-9.56137E-2,3.3969882E-1,3.230958E-1,9.558093E-2,2.3716353E-1,-1.1471761E-2,2.7322945E-1,-5.9489274E-1,5.311387E-1,3.4516138E-1,1.8237303E-1,-1.494908E-1,7.091984E-1,1.2520745E0,7.221048E-1,3.423966E-1,5.478842E-1,4.8601784E-2,1.8266352E-1,-5.4171497E-1,-5.4384714E-1,1.9765961E-1,-3.0639592E-1,4.840542E-4,-7.565106E-1,-2.4911307E-1,-2.2537802E-1,6.983532E-2,-6.43203E-2,-4.3945682E-1,1.1168158E0,2.7249798E-1,4.3808982E-1,2.2355495E-1,1.8834455E-1,-5.9116785E-3,2.0999147E-3,1.7062213E-2,1.4492855E-3,-2.1214738E-2,6.874787E-5,5.770443E-2,2.2905369E-3,-3.2870818E-2,3.1447906E-2,2.3815779E-2,1.4880109E-2,2.6565341E-2,3.8587449E-3,1.6191585E-2,-9.293754E-2,-5.2741882E-3,-3.6081955E-2,4.1492548E-2,6.64572E-2,4.6915032E-2,3.8102478E-2,2.1275472E-2,5.2255844E-3,2.8707242E-2,3.5064176E-2,2.1821698E-2,8.08094E-3,-2.5284959E-2,1.1529011E-2,-3.8800325E-2,-3.504519E-2,1.1926416E-2,-2.9763607E-2,-1.4928785E-2,2.976594E-2,-1.2602356E-2,-1.7199948E-2,7.719967E-3,-2.6655386E-3,2.3939108E-2,-7.457172E-3,-4.075293E-2,1.6484983E-2,-1.7310644E-2,-1.5484183E-2,-1.3749902E-3,2.3714902E-2,-4.7621364E-4,-4.6081557E-3,1.5013306E-2,-4.2732008E-2,-1.54231405E-2,6.514095E-2,1.2639433E-2,2.07143E-2,1.7747515E-3,2.9636923E-2,1.8128326E-2,6.796026E-3,1.9501857E-2,-2.7427921E-2,1.0320256E-2,-4.6340968E-3,8.358627E-3],"categories":[],"categories_nodes":[],"categories_segments":[],"categories_sizes":[],"default_left":[0,0,0,0,0,0,0,0,0,0,0,0,0,0,0,0,0,0,0,0,0,0,0,0,0,0,0,0,0,0,0,0,0,0,0,0,0,0,0,1,0,0,0,0,0,0,0,0,0,0,1,0,0,0,0,0,0,0,0,0,0,0,0,0,0,0,0,0,0,0,0,0,0,0,0,0,0,0,0,0,0,0,0,0,0,0,0,0,0,0,0,0,0,0,0,0,0,0,0,0,0,0,0,0,0,0,0,0,0,0,0,0,0,0,0,0,0,0,0,0,0,0,0,0,0,0,0],"id":9,"left_children":[1,3,5,7,9,11,13,15,17,19,21,23,25,27,29,31,33,35,37,39,41,43,45,47,49,51,53,55,57,59,61,63,65,67,69,71,73,75,77,79,81,83,85,87,89,91,93,95,97,99,101,103,105,107,109,111,113,115,117,119,121,123,125,-1,-1,-1,-1,-1,-1,-1,-1,-1,-1,-1,-1,-1,-1,-1,-1,-1,-1,-1,-1,-1,-1,-1,-1,-1,-1,-1,-1,-1,-1,-1,-1,-1,-1,-1,-1,-1,-1,-1,-1,-1,-1,-1,-1,-1,-1,-1,-1,-1,-1,-1,-1,-1,-1,-1,-1,-1,-1,-1,-1,-1,-1,-1,-1],"loss_changes":[7.7510703E3,8.35145E2,2.099092E3,9.690071E2,2.0596729E2,8.35605E2,3.8139673E2,4.8002597E2,3.230796E2,8.672803E1,1.2978009E2,4.0772363E2,6.354066E2,4.3033707E2,9.667874E1,3.8377472E2,6.3860138E1,1.5588916E2,5.1285507E1,1.9529419E1,6.565991E1,8.334302E1,6.517575E1,2.176958E2,1.0152753E2,1.591919E2,4.3802866E2,2.3179439E2,1.3226538E2,4.249115E1,3.534166E1,2.9983832E2,1.7896182E2,2.2146704E1,4.271109E1,5.1753418E1,7.450806E1,5.749936E1,3.9646465E1,1.5921421E1,7.1552734E0,4.171216E1,2.8971535E1,5.0008728E1,2.3787455E1,2.6042759E1,1.996172E1,2.1901709E2,7.2699615E1,1.2546942E2,3.2644444E1,7.904309E1,4.8389214E1,2.6627692E2,2.3548979E2,2.0049937E2,9.747275E1,3.2090073E1,7.85455E1,1.9935791E1,2.9073349E1,2.6214943E1,2.6951126E1,0E0,0E0,0E0,0E0,0E0,0E0,0E0,0E0,0E0,0E0,0E0,0E0,0E0,0E0,0E0,0E0,0E0,0E0,0E0,0E0,0E0,0E0,0E0,0E0,0E0,0E0,0E0,0E0,0E0,0E0,0E0,0E0,0E0,0E0,0E0,0E0,0E0,0E0,0E0,0E0,0E0,0E0,0E0,0E0,0E0,0E0,0E0,0E0,0E0,0E0,0E0,0E0,0E0,0E0,0E0,0E0,0E0,0E0,0E0,0E0,0E0,0E0,0E0,0E0],"parents":[2147483647,0,0,1,1,2,2,3,3,4,4,5,5,6,6,7,7,8,8,9,9,10,10,11,11,12,12,13,13,14,14,15,15,16,16,17,17,18,18,19,19,20,20,21,21,22,22,23,23,24,24,25,25,26,26,27,27,28,28,29,29,30,30,31,31,32,32,33,33,34,34,35,35,36,36,37,37,38,38,39,39,40,40,41,41,42,42,43,43,44,44,45,45,46,46,47,47,48,48,49,49,50,50,51,51,52,52,53,53,54,54,55,55,56,56,57,57,58,58,59,59,60,60,61,61,62,62],"right_children":[2,4,6,8,10,12,14,16,18,20,22,24,26,28,30,32,34,36,38,40,42,44,46,48,50,52,54,56,58,60,62,64,66,68,70,72,74,76,78,80,82,84,86,88,90,92,94,96,98,100,102,104,106,108,110,112,114,116,118,120,122,124,126,-1,-1,-1,-1,-1,-1,-1,-1,-1,-1,-1,-1,-1,-1,-1,-1,-1,-1,-1,-1,-1,-1,-1,-1,-1,-1,-1,-1,-1,-1,-1,-1,-1,-1,-1,-1,-1,-1,-1,-1,-1,-1,-1,-1,-1,-1,-1,-1,-1,-1,-1,-1,-1,-1,-1,-1,-1,-1,-1,-1,-1,-1,-1,-1],"split_conditions":[1.08E1,1E0,1.9E1,1E0,6.5E1,1E0,2E0,1.245E3,8E1,3.3E1,2E0,9E0,2.9E1,1E0,6.3E1,6.6E1,7E0,9.5E0,4.4E1,2.2E1,1.4255813E0,8.3E1,1E0,1E0,2E0,7E0,1E0,1.245E3,1E0,1.18E1,1.19E1,2.3E1,1E0,2E0,5.25E-1,5.5E1,1E0,1E0,6.3E1,8.1E1,1.1E1,2.7E1,1E0,8.411111E0,1E0,8.7E1,4E0,1E0,4E0,1E0,1.6333333E0,1.28E1,1.2466666E1,1E0,3E0,1E0,1.56E1,1.1333333E1,6.7E1,4.6E1,1.6E1,1E0,6E0,2.0999147E-3,1.7062213E-2,1.4492855E-3,-2.1214738E-2,6.874787E-5,5.770443E-2,2.2905369E-3,-3.2870818E-2,3.1447906E-2,2.3815779E-2,1.4880109E-2,2.6565341E-2,3.8587449E-3,1.6191585E-2,-9.293754E-2,-5.2741882E-3,-3.6081955E-2,4.1492548E-2,6.64572E-2,4.6915032E-2,3.8102478E-2,2.1275472E-2,5.2255844E-3,2.8707242E-2,3.5064176E-2,2.1821698E-2,8.08094E-3,-2.5284959E-2,1.1529011E-2,-3.8800325E-2,-3.504519E-2,1.1926416E-2,-2.9763607E-2,-1.4928785E-2,2.976594E-2,-1.2602356E-2,-1.7199948E-2,7.719967E-3,-2.6655386E-3,2.3939108E-2,-7.457172E-3,-4.075293E-2,1.6484983E-2,-1.7310644E-2,-1.5484183E-2,-1.3749902E-3,2.3714902E-2,-4.7621364E-4,-4.6081557E-3,1.5013306E-2,-4.2732008E-2,-1.54231405E-2,6.514095E-2,1.2639433E-2,2.07143E-2,1.7747515E-3,2.9636923E-2,1.8128326E-2,6.796026E-3,1.9501857E-2,-2.7427921E-2,1.0320256E-2,-4.6340968E-3,8.358627E-3],"split_indices":[42,16,45,9,0,95,9,84,0,0,23,3,0,16,0,0,45,42,45,45,83,0,57,16,9,3,7,84,1,42,85,45,79,10,83,0,5,95,90,84,1,3,33,85,21,0,24,9,90,16,83,85,85,62,3,5,85,42,0,0,3,1,1,0,0,0,0,0,0,0,0,0,0,0,0,0,0,0,0,0,0,0,0,0,0,0,0,0,0,0,0,0,0,0,0,0,0,0,0,0,0,0,0,0,0,0,0,0,0,0,0,0,0,0,0,0,0,0,0,0,0,0,0,0,0,0,0],"split_type":[0,0,0,0,0,0,0,0,0,0,0,0,0,0,0,0,0,0,0,0,0,0,0,0,0,0,0,0,0,0,0,0,0,0,0,0,0,0,0,0,0,0,0,0,0,0,0,0,0,0,0,0,0,0,0,0,0,0,0,0,0,0,0,0,0,0,0,0,0,0,0,0,0,0,0,0,0,0,0,0,0,0,0,0,0,0,0,0,0,0,0,0,0,0,0,0,0,0,0,0,0,0,0,0,0,0,0,0,0,0,0,0,0,0,0,0,0,0,0,0,0,0,0,0,0,0,0],"sum_hessian":[1.41928E5,5.770848E4,8.4219516E4,4.916169E4,8.546788E3,5.2665773E4,3.155374E4,2.663E4,2.2531693E4,4.5069663E3,4.0398223E3,2.6285945E4,2.6379826E4,2.408135E4,7.472391E3,2.5474059E4,1.1559406E3,1.8138434E4,4.3932603E3,4.3421667E2,4.0727498E3,3.3194167E3,7.204054E2,1.778213E4,8.503815E3,3.0831714E3,2.3296654E4,2.1543814E4,2.5375347E3,3.719677E3,3.752714E3,1.4760657E4,1.0713402E4,9.1490524E1,1.06445E3,9.705372E3,8.433061E3,3.8645762E3,5.286838E2,8.775745E1,3.4645923E2,3.5471426E3,5.256071E2,2.9420059E3,3.77411E2,5.6203687E2,1.5836856E2,1.737744E4,4.046901E2,7.2370747E3,1.2667406E3,2.225224E3,8.579472E2,1.5961207E4,7.335448E3,1.9747746E4,1.7960688E3,2.0072398E2,2.3368105E3,1.7242941E3,1.9953829E3,1.9602247E3,1.7924894E3,5.134391E3,9.626266E3,9.758025E3,9.553761E2,7.067887E1,2.0811651E1,9.466351E1,9.697865E2,3.482026E3,6.2233467E3,6.718991E3,1.714069E3,2.2172366E3,1.6473398E3,1.2234913E1,5.1644885E2,6.437148E0,8.13203E1,2.7554382E2,7.0915405E1,3.1247405E3,4.2240204E2,2.6008557E2,2.6552158E2,1.2357859E3,1.7062198E3,3.1408112E2,6.3329906E1,5.3600543E2,2.6031399E1,1.3161711E2,2.6751446E1,1.4364312E4,3.013129E3,2.146018E2,1.900883E2,6.691288E3,5.457868E2,1.1394712E3,1.272693E2,1.9595589E2,2.0292683E3,1.229063E2,7.350409E2,1.119222E4,4.7689873E3,1.2023903E3,6.133058E3,1.834734E4,1.4004061E3,4.2944046E2,1.3666284E3,1.6474973E2,3.597427E1,1.4616338E3,8.751767E2,5.635229E2,1.1607712E3,1.3084469E3,6.8693604E2,4.6190666E1,1.914034E3,1.194253E3,5.982362E2],"tree_param":{"num_deleted":"0","num_feature":"96","num_nodes":"127","size_leaf_vector":"1"}},{"base_weights":[2.5975353E-3,-2.3188443E-1,3.938329E-1,-1.6070109E-2,-4.5470163E-1,2.742103E-1,6.823294E-1,-1.5578537E-1,1.26101E-1,-5.715792E-1,-2.3331995E-1,4.8426148E-1,1.3250233E-1,6.0761756E-1,9.33755E-1,-2.894943E-1,4.1296035E-2,2.5809252E-1,-3.6921788E-2,-6.6845226E-1,-4.1460887E-1,-2.7498472E-1,2.4780518E-1,4.9528173E-1,-3.939638E-1,2.1210436E-3,2.4825199E-1,6.585598E-1,4.2726177E-1,9.677085E-1,6.478846E-1,-3.858009E-1,-1.21771336E-1,1.3977702E-1,-1.7616071E-1,2.760161E-1,-3.7509388E-1,2.4756033E-3,-6.5450066E-1,-8.7700695E-1,-5.2177596E-1,-4.6550897E-1,-1.9122832E-1,-3.1158155E-1,1.969639E-1,9.709686E-3,5.0059766E-1,5.64354E-1,3.514192E-1,1.9246994E-2,-7.736881E-1,-1.5594678E-1,1.0909572E-1,3.412383E-1,6.902006E-2,7.566576E-1,5.5411446E-1,5.1412606E-1,2.0500012E-1,9.109003E-1,1.1003788E0,-3.0072263E-1,6.910815E-1,-2.2636874E-2,7.0411824E-3,-9.387611E-3,1.3622398E-2,4.8614563E-3,3.0324569E-2,-1.3313751E-2,9.193482E-3,1.6980065E-2,3.0752257E-3,5.344965E-2,-2.1447817E-2,-5.5114008E-3,7.0221922E-3,5.896427E-2,-3.6841746E-2,-4.5697685E-2,-1.3192712E-2,-2.7744204E-2,3.0187967E-3,-2.4603726E-2,3.710296E-3,-1.2512872E-2,8.398767E-3,-1.9507954E-2,-8.471738E-3,4.599996E-2,6.6711837E-3,2.3073053E-3,-5.2596547E-2,1.9864215E-2,4.6709016E-2,2.6105428E-2,3.9160173E-2,2.4189329E-2,1.3010919E-2,9.851643E-3,-6.387119E-2,-4.5595217E-2,3.7169408E-2,-4.064195E-3,-1.7995507E-2,8.128001E-3,-8.238852E-3,2.312476E-2,1.1888328E-2,2.0374418E-5,2.0659054E-2,4.006405E-2,3.1062394E-2,2.0510968E-2,3.210723E-2,-1.2612057E-2,2.6427483E-2,6.6967206E-3,4.3305386E-2,6.082061E-2,4.3985374E-2,4.7285292E-2,5.875504E-2,3.8132984E-2,-4.4986572E-2,3.5989527E-2,-2.0035822E-2],"categories":[],"categories_nodes":[],"categories_segments":[],"categories_sizes":[],"default_left":[0,0,0,0,0,0,0,0,0,0,0,0,0,0,0,0,0,0,0,0,0,0,0,0,0,0,0,0,1,0,0,0,0,0,0,0,0,0,0,0,0,0,0,0,0,0,0,0,0,0,0,0,0,0,0,0,0,0,0,0,0,0,0,0,0,0,0,0,0,0,0,0,0,0,0,0,0,0,0,0,0,0,0,0,0,0,0,0,0,0,0,0,0,0,0,0,0,0,0,0,0,0,0,0,0,0,0,0,0,0,0,0,0,0,0,0,0,0,0,0,0,0,0,0,0,0,0],"id":10,"left_children":[1,3,5,7,9,11,13,15,17,19,21,23,25,27,29,31,33,35,37,39,41,43,45,47,49,51,53,55,57,59,61,63,65,67,69,71,73,75,77,79,81,83,85,87,89,91,93,95,97,99,101,103,105,107,109,111,113,115,117,119,121,123,125,-1,-1,-1,-1,-1,-1,-1,-1,-1,-1,-1,-1,-1,-1,-1,-1,-1,-1,-1,-1,-1,-1,-1,-1,-1,-1,-1,-1,-1,-1,-1,-1,-1,-1,-1,-1,-1,-1,-1,-1,-1,-1,-1,-1,-1,-1,-1,-1,-1,-1,-1,-1,-1,-1,-1,-1,-1,-1,-1,-1,-1,-1,-1,-1],"loss_changes":[1.3000983E4,4.261053E3,1.8326074E3,8.941539E2,1.1279512E3,1.1174485E3,2.918252E2,5.98285E2,4.8009915E2,4.336045E2,3.0208142E2,1.4657031E2,3.3835577E2,1.0999658E2,3.3965576E1,2.1844666E2,1.9657219E2,1.400282E2,2.4290244E2,5.39229E2,1.2374988E2,2.3954895E2,7.229645E1,1.4823096E2,2.9511314E1,1.7832008E2,1.9791132E2,9.5454346E1,5.0987366E1,2.2991455E1,1.5835739E1,3.029442E2,1.2842549E2,1.2539411E2,9.288001E1,1.6352612E2,2.6890526E1,1.4595566E2,9.1258484E1,1.6475293E2,1.9971826E2,1.27208496E2,4.293512E1,1.4366736E2,4.5747738E1,2.4017065E1,2.5727234E1,9.287866E1,5.839923E1,2.1229918E1,2.1224373E1,6.478921E1,9.211746E1,9.799713E1,9.5827156E1,2.8642822E1,5.7191772E1,2.1158691E1,3.489964E1,2.0227905E1,9.86438E0,1.1710665E1,1.1731537E1,0E0,0E0,0E0,0E0,0E0,0E0,0E0,0E0,0E0,0E0,0E0,0E0,0E0,0E0,0E0,0E0,0E0,0E0,0E0,0E0,0E0,0E0,0E0,0E0,0E0,0E0,0E0,0E0,0E0,0E0,0E0,0E0,0E0,0E0,0E0,0E0,0E0,0E0,0E0,0E0,0E0,0E0,0E0,0E0,0E0,0E0,0E0,0E0,0E0,0E0,0E0,0E0,0E0,0E0,0E0,0E0,0E0,0E0,0E0,0E0,0E0,0E0,0E0,0E0],"parents":[2147483647,0,0,1,1,2,2,3,3,4,4,5,5,6,6,7,7,8,8,9,9,10,10,11,11,12,12,13,13,14,14,15,15,16,16,17,17,18,18,19,19,20,20,21,21,22,22,23,23,24,24,25,25,26,26,27,27,28,28,29,29,30,30,31,31,32,32,33,33,34,34,35,35,36,36,37,37,38,38,39,39,40,40,41,41,42,42,43,43,44,44,45,45,46,46,47,47,48,48,49,49,50,50,51,51,52,52,53,53,54,54,55,55,56,56,57,57,58,58,59,59,60,60,61,61,62,62],"right_children":[2,4,6,8,10,12,14,16,18,20,22,24,26,28,30,32,34,36,38,40,42,44,46,48,50,52,54,56,58,60,62,64,66,68,70,72,74,76,78,80,82,84,86,88,90,92,94,96,98,100,102,104,106,108,110,112,114,116,118,120,122,124,126,-1,-1,-1,-1,-1,-1,-1,-1,-1,-1,-1,-1,-1,-1,-1,-1,-1,-1,-1,-1,-1,-1,-1,-1,-1,-1,-1,-1,-1,-1,-1,-1,-1,-1,-1,-1,-1,-1,-1,-1,-1,-1,-1,-1,-1,-1,-1,-1,-1,-1,-1,-1,-1,-1,-1,-1,-1,-1,-1,-1,-1,-1,-1,-1],"split_conditions":[3E0,1.19E1,1.1E1,1E0,1.7E1,1.01E1,3E1,6E0,1.01E1,1E0,1E0,3.303846E2,5E0,1E0,4E0,1E0,2E0,1.245E3,1.245E3,6E0,1E0,1E0,5E0,2E0,2E0,1.6E1,1E0,1.105E1,1.082E1,5.6E1,1.2E1,1E0,1E0,1E0,1E0,7.7E1,3E0,1E0,3E0,1E0,1E0,1E0,3E0,1E0,1E0,1.54E0,1.2666667E0,1E0,8.286667E0,2E0,1.38E2,1E0,1E0,1.2275E1,1E0,2E0,1E0,8.1E1,4E0,2.7E1,1E0,1.3E1,3E0,-2.2636874E-2,7.0411824E-3,-9.387611E-3,1.3622398E-2,4.8614563E-3,3.0324569E-2,-1.3313751E-2,9.193482E-3,1.6980065E-2,3.0752257E-3,5.344965E-2,-2.1447817E-2,-5.5114008E-3,7.0221922E-3,5.896427E-2,-3.6841746E-2,-4.5697685E-2,-1.3192712E-2,-2.7744204E-2,3.0187967E-3,-2.4603726E-2,3.710296E-3,-1.2512872E-2,8.398767E-3,-1.9507954E-2,-8.471738E-3,4.599996E-2,6.6711837E-3,2.3073053E-3,-5.2596547E-2,1.9864215E-2,4.6709016E-2,2.6105428E-2,3.9160173E-2,2.4189329E-2,1.3010919E-2,9.851643E-3,-6.387119E-2,-4.5595217E-2,3.7169408E-2,-4.064195E-3,-1.7995507E-2,8.128001E-3,-8.238852E-3,2.312476E-2,1.1888328E-2,2.0374418E-5,2.0659054E-2,4.006405E-2,3.1062394E-2,2.0510968E-2,3.210723E-2,-1.2612057E-2,2.6427483E-2,6.6967206E-3,4.3305386E-2,6.082061E-2,4.3985374E-2,4.7285292E-2,5.875504E-2,3.8132984E-2,-4.4986572E-2,3.5989527E-2,-2.0035822E-2],"split_indices":[2,85,2,2,43,42,2,1,42,2,5,84,2,23,65,9,65,84,84,43,9,59,1,65,1,43,65,42,85,2,43,59,5,59,59,0,43,95,43,53,5,59,9,9,1,40,40,59,42,9,90,65,23,85,59,65,95,84,19,0,95,46,38,0,0,0,0,0,0,0,0,0,0,0,0,0,0,0,0,0,0,0,0,0,0,0,0,0,0,0,0,0,0,0,0,0,0,0,0,0,0,0,0,0,0,0,0,0,0,0,0,0,0,0,0,0,0,0,0,0,0,0,0,0,0,0,0],"split_type":[0,0,0,0,0,0,0,0,0,0,0,0,0,0,0,0,0,0,0,0,0,0,0,0,0,0,0,0,0,0,0,0,0,0,0,0,0,0,0,0,0,0,0,0,0,0,0,0,0,0,0,0,0,0,0,0,0,0,0,0,0,0,0,0,0,0,0,0,0,0,0,0,0,0,0,0,0,0,0,0,0,0,0,0,0,0,0,0,0,0,0,0,0,0,0,0,0,0,0,0,0,0,0,0,0,0,0,0,0,0,0,0,0,0,0,0,0,0,0,0,0,0,0,0,0,0,0],"sum_hessian":[1.417172E5,8.86102E4,5.3106996E4,4.5012992E4,4.359721E4,3.754234E4,1.5564656E4,2.2702527E4,2.2310463E4,2.8532178E4,1.5065034E4,1.512315E4,2.241919E4,1.2001726E4,3.5629312E3,1.3525648E4,9.17688E3,1.232828E4,9.982183E3,1.7641566E4,1.0890611E4,1.3864791E4,1.2002432E3,1.4936163E4,1.8698764E2,1.0543702E4,1.1875487E4,9.356335E3,2.6453901E3,3.1825474E3,3.803838E2,8.591249E3,4.934399E3,6.3165996E3,2.8602805E3,1.1989459E4,3.3882108E2,9.38451E3,5.976728E2,7.2822173E3,1.035935E4,8.868685E3,2.0219266E3,1.2867344E4,9.974472E2,6.186237E2,5.8161945E2,1.0089162E4,4.8470005E3,9.0000084E1,9.698756E1,4.255394E3,6.2883086E3,7.818376E3,4.0571116E3,4.8215586E3,4.534777E3,1.9010922E3,7.442979E2,2.233884E3,9.486633E2,1.6307539E1,3.6407626E2,7.622529E3,9.6872064E2,4.2273813E3,7.070174E2,5.7899673E3,5.2663257E2,2.2878901E3,5.723903E2,9.247689E3,2.74177E3,1.1505461E1,3.273156E2,5.1652866E3,4.219223E3,2.5109041E1,5.725638E2,6.8678887E3,4.1432843E2,9.801941E3,5.5740875E2,8.452718E3,4.159672E2,1.7368136E3,2.85113E2,8.285466E3,4.581878E3,7.948577E1,9.179614E2,5.9902136E2,1.9602398E1,4.7124765E2,1.103718E2,8.4595625E3,1.6295996E3,1.9754952E3,2.8715054E3,7.989391E1,1.0106167E1,8.925474E1,7.7328224E0,3.116109E3,1.139285E3,5.2615728E3,1.0267362E3,3.5982146E3,4.2201616E3,3.3835598E3,6.735515E2,3.6227776E3,1.1987806E3,1.72338E3,2.811397E3,3.4814465E1,1.8662776E3,6.7314124E2,7.115668E1,2.0343039E2,2.0304537E3,3.1346146E2,6.3520184E2,5.7776465E0,1.0529892E1,3.550801E2,8.996153E0],"tree_param":{"num_deleted":"0","num_feature":"96","num_nodes":"127","size_leaf_vector":"1"}},{"base_weights":[1.3235762E-3,2.5883728E-1,-1.7506354E-1,2.1408302E-1,5.1952744E-1,-2.870932E-1,1.1382116E-2,9.615046E-2,3.5409632E-1,5.8740455E-1,2.5228262E-1,-4.006355E-1,-1.7411354E-1,-4.638597E-2,1.97877E-1,-7.981123E-2,1.8611413E-1,4.3458995E-1,2.6772064E-1,6.440738E-1,2.585841E-1,1.1855358E-1,4.2335474E-1,-4.6187726E-1,-1.722555E-1,-2.532585E-1,-3.5564464E-3,-8.745968E-2,3.1213748E-1,1.7642911E-1,5.5897397E-1,-1.9417264E-1,1.2648767E-1,1.1052839E-1,3.5519177E-1,4.546517E-1,1.222562E-1,2.2624168E-1,4.44234E-1,8.190499E-1,5.595445E-1,5.6611633E-1,9.442615E-2,3.7423444E-1,1.5027621E-2,5.21094E-1,2.4450194E-2,-4.907714E-1,1.6417626E-1,-2.715268E-1,-2.4717726E-2,-2.838305E-1,2.1056153E-1,5.844336E-2,-2.999904E-1,-1.15720935E-1,2.878686E-1,1.0293155E0,2.5029975E-1,2.5966024E-1,1.0044476E-1,6.101787E-1,-1.0017697E0,-6.9749053E-3,-3.0404547E-2,1.5926724E-2,-4.9329095E-4,4.1937116E-3,3.1840127E-2,2.1697482E-2,4.558514E-3,9.844291E-3,2.3595259E-2,7.0367865E-3,-7.1980536E-2,8.950822E-3,2.0930802E-2,2.5337562E-2,1.421345E-2,3.3860292E-2,4.72773E-2,2.225576E-2,3.5692163E-2,-6.314259E-2,2.9987633E-2,1.3569749E-2,-5.9593474E-3,2.49256E-2,-6.5490655E-3,2.7292138E-3,-4.0509507E-2,2.7473813E-2,-1.6740536E-2,-1.50987385E-2,2.3237182E-2,-2.6775941E-2,-1.6452502E-2,2.550227E-4,2.0794427E-2,-1.4421529E-2,2.4201263E-2,-5.127595E-3,9.065474E-3,-1.7848222E-2,-6.4252936E-3,3.0921338E-4,1.9608613E-2,5.759059E-3,-9.070327E-3,-1.6415847E-2,4.6962395E-2,-7.5136884E-3,5.304884E-3,9.678503E-3,2.9853767E-2,6.616711E-2,2.6238894E-2,1.63249E-2,-4.5356727E-3,1.8650081E-2,9.566872E-3,1.6021852E-3,1.1695407E-2,3.5069842E-2,1.5910206E-2,-9.07857E-2,-1.16733825E-2],"categories":[],"categories_nodes":[],"categories_segments":[],"categories_sizes":[],"default_left":[0,0,0,0,0,0,0,0,0,0,0,0,0,0,0,0,0,0,0,0,0,0,0,0,0,0,0,0,0,0,0,0,0,0,0,0,0,0,1,0,0,0,0,0,0,0,0,0,0,1,0,0,0,0,0,1,0,0,0,0,0,0,0,0,0,0,0,0,0,0,0,0,0,0,0,0,0,0,0,0,0,0,0,0,0,0,0,0,0,0,0,0,0,0,0,0,0,0,0,0,0,0,0,0,0,0,0,0,0,0,0,0,0,0,0,0,0,0,0,0,0,0,0,0,0,0,0],"id":11,"left_children":[1,3,5,7,9,11,13,15,17,19,21,23,25,27,29,31,33,35,37,39,41,43,45,47,49,51,53,55,57,59,61,63,65,67,69,71,73,75,77,79,81,83,85,87,89,91,93,95,97,99,101,103,105,107,109,111,113,115,117,119,121,123,125,-1,-1,-1,-1,-1,-1,-1,-1,-1,-1,-1,-1,-1,-1,-1,-1,-1,-1,-1,-1,-1,-1,-1,-1,-1,-1,-1,-1,-1,-1,-1,-1,-1,-1,-1,-1,-1,-1,-1,-1,-1,-1,-1,-1,-1,-1,-1,-1,-1,-1,-1,-1,-1,-1,-1,-1,-1,-1,-1,-1,-1,-1,-1,-1],"loss_changes":[6.409081E3,6.691013E2,1.7491401E3,8.0834595E2,1.5229321E2,6.709585E2,3.3864383E2,4.2070374E2,1.5550317E2,1.2469678E2,3.8929955E1,3.6481348E2,3.5395758E2,3.5343985E2,5.7475403E1,2.1215027E2,2.2469409E2,7.253027E1,7.896838E1,8.407153E1,4.9760582E1,2.534442E1,2.9118515E1,3.7221045E2,8.081511E1,2.5402856E2,1.5278526E2,2.2844267E2,1.0915341E2,4.436133E1,3.388344E1,1.3083278E2,8.398907E1,1.7043208E2,1.1291638E2,4.831494E1,2.042176E1,7.938696E1,2.0395538E1,3.27229E1,6.777661E1,2.1871178E1,2.439738E1,1.7392952E1,2.2330435E1,1.4761444E1,2.1424614E1,1.421289E2,3.6367954E1,4.2268356E1,3.562879E1,1.9083167E2,4.1127556E1,9.358245E1,5.078531E1,1.5350589E2,4.385875E1,2.830931E1,5.908101E1,2.5862122E1,3.350203E1,1.0529449E1,8.083185E0,0E0,0E0,0E0,0E0,0E0,0E0,0E0,0E0,0E0,0E0,0E0,0E0,0E0,0E0,0E0,0E0,0E0,0E0,0E0,0E0,0E0,0E0,0E0,0E0,0E0,0E0,0E0,0E0,0E0,0E0,0E0,0E0,0E0,0E0,0E0,0E0,0E0,0E0,0E0,0E0,0E0,0E0,0E0,0E0,0E0,0E0,0E0,0E0,0E0,0E0,0E0,0E0,0E0,0E0,0E0,0E0,0E0,0E0,0E0,0E0,0E0,0E0,0E0,0E0],"parents":[2147483647,0,0,1,1,2,2,3,3,4,4,5,5,6,6,7,7,8,8,9,9,10,10,11,11,12,12,13,13,14,14,15,15,16,16,17,17,18,18,19,19,20,20,21,21,22,22,23,23,24,24,25,25,26,26,27,27,28,28,29,29,30,30,31,31,32,32,33,33,34,34,35,35,36,36,37,37,38,38,39,39,40,40,41,41,42,42,43,43,44,44,45,45,46,46,47,47,48,48,49,49,50,50,51,51,52,52,53,53,54,54,55,55,56,56,57,57,58,58,59,59,60,60,61,61,62,62],"right_children":[2,4,6,8,10,12,14,16,18,20,22,24,26,28,30,32,34,36,38,40,42,44,46,48,50,52,54,56,58,60,62,64,66,68,70,72,74,76,78,80,82,84,86,88,90,92,94,96,98,100,102,104,106,108,110,112,114,116,118,120,122,124,126,-1,-1,-1,-1,-1,-1,-1,-1,-1,-1,-1,-1,-1,-1,-1,-1,-1,-1,-1,-1,-1,-1,-1,-1,-1,-1,-1,-1,-1,-1,-1,-1,-1,-1,-1,-1,-1,-1,-1,-1,-1,-1,-1,-1,-1,-1,-1,-1,-1,-1,-1,-1,-1,-1,-1,-1,-1,-1,-1,-1,-1,-1,-1,-1],"split_conditions":[1.08E1,1E0,1.9E1,1E0,1.275E0,1E0,2E0,2.2E1,9.5E0,2E0,1E0,1E0,1E0,1E0,3.95E0,1E0,2E0,3E1,1E0,8.194643E0,3E0,7.8777776E0,1E0,1E0,1.1E1,1E0,1.38E1,1E0,1E0,1.1766666E1,4.9E1,1.0227273E1,9.1E0,1E0,2E0,1.4E1,1.2E1,4E0,1.1666666E0,1E0,1.195E2,9E0,2E0,2E0,6.1E1,5E0,5E0,1E1,2E0,2.1E0,1.11333336E2,1E0,1.2E1,1E0,2E0,1.325E0,3.3E1,1.2E1,1.1166667E0,8.25E-1,8.4E1,4E0,5.61E0,-6.9749053E-3,-3.0404547E-2,1.5926724E-2,-4.9329095E-4,4.1937116E-3,3.1840127E-2,2.1697482E-2,4.558514E-3,9.844291E-3,2.3595259E-2,7.0367865E-3,-7.1980536E-2,8.950822E-3,2.0930802E-2,2.5337562E-2,1.421345E-2,3.3860292E-2,4.72773E-2,2.225576E-2,3.5692163E-2,-6.314259E-2,2.9987633E-2,1.3569749E-2,-5.9593474E-3,2.49256E-2,-6.5490655E-3,2.7292138E-3,-4.0509507E-2,2.7473813E-2,-1.6740536E-2,-1.50987385E-2,2.3237182E-2,-2.6775941E-2,-1.6452502E-2,2.550227E-4,2.0794427E-2,-1.4421529E-2,2.4201263E-2,-5.127595E-3,9.065474E-3,-1.7848222E-2,-6.4252936E-3,3.0921338E-4,1.9608613E-2,5.759059E-3,-9.070327E-3,-1.6415847E-2,4.6962395E-2,-7.5136884E-3,5.304884E-3,9.678503E-3,2.9853767E-2,6.616711E-2,2.6238894E-2,1.63249E-2,-4.5356727E-3,1.8650081E-2,9.566872E-3,1.6021852E-3,1.1695407E-2,3.5069842E-2,1.5910206E-2,-9.07857E-2,-1.16733825E-2],"split_indices":[42,16,43,9,83,95,9,43,42,23,76,9,7,16,87,95,67,3,5,42,39,42,14,16,90,16,42,5,90,42,43,83,42,5,23,43,9,9,83,76,41,3,74,23,43,67,18,3,16,83,41,19,90,18,5,83,43,3,83,83,90,35,83,0,0,0,0,0,0,0,0,0,0,0,0,0,0,0,0,0,0,0,0,0,0,0,0,0,0,0,0,0,0,0,0,0,0,0,0,0,0,0,0,0,0,0,0,0,0,0,0,0,0,0,0,0,0,0,0,0,0,0,0,0,0,0,0],"split_type":[0,0,0,0,0,0,0,0,0,0,0,0,0,0,0,0,0,0,0,0,0,0,0,0,0,0,0,0,0,0,0,0,0,0,0,0,0,0,0,0,0,0,0,0,0,0,0,0,0,0,0,0,0,0,0,0,0,0,0,0,0,0,0,0,0,0,0,0,0,0,0,0,0,0,0,0,0,0,0,0,0,0,0,0,0,0,0,0,0,0,0,0,0,0,0,0,0,0,0,0,0,0,0,0,0,0,0,0,0,0,0,0,0,0,0,0,0,0,0,0,0,0,0,0,0,0,0],"sum_hessian":[1.4109852E5,5.735845E4,8.374007E4,4.8955742E4,8.402705E3,5.230875E4,3.143132E4,2.6574148E4,2.2381596E4,6.699828E3,1.7028773E3,2.608814E4,2.622061E4,2.39984E4,7.4329194E3,8.990185E3,1.7583963E4,1.1583183E4,1.0798412E4,5.714096E3,9.857318E2,9.567039E2,7.461734E2,2.0570887E4,5.517254E3,1.7909459E4,8.31115E3,2.1532336E4,2.4660645E3,7.017588E3,4.1533185E2,5.783932E3,3.206253E3,1.2152757E4,5.4312065E3,1.088365E4,6.995322E2,8.745568E3,2.052844E3,1.8584357E3,3.8556606E3,3.422029E2,6.4352893E2,2.7497525E2,6.817287E2,5.990808E2,1.4709256E2,1.9663574E4,9.073134E2,3.297607E3,2.219647E3,1.6802344E4,1.1071138E3,6.8741997E3,1.4369512E3,2.0025184E4,1.5071531E3,1.9451263E2,2.2715518E3,3.347935E3,3.6696526E3,4.027282E2,1.2603624E1,5.1102544E3,6.736774E2,1.3306979E3,1.875555E3,1.1568031E4,5.8472565E2,4.182823E3,1.2483837E3,6.8356934E2,1.0200081E4,6.922516E2,7.2806144E0,7.0233613E3,1.7222068E3,1.4744388E3,5.784052E2,8.790657E2,9.7937006E2,2.2160806E3,1.6395801E3,5.5198174E0,3.3668307E2,3.5180435E2,2.9172455E2,2.2069896E2,5.4276276E1,6.514361E2,3.029261E1,5.8019916E2,1.8881691E1,8.4649345E1,6.2443222E1,1.5400132E4,4.263442E3,5.5658563E2,3.507278E2,3.2260496E3,7.1557304E1,1.6113892E3,6.0825775E2,1.1422712E4,5.3796323E3,5.2139325E2,5.8572046E2,5.559572E3,1.3146277E3,1.4055579E3,3.1393253E1,1.732654E4,2.6986436E3,1.1561798E3,3.5097318E2,1.21868904E2,7.264373E1,1.856717E3,4.1483475E2,1.2574613E3,2.0904739E3,2.4270237E3,1.2426289E3,3.0579126E2,9.693695E1,5.458049E0,7.145575E0],"tree_param":{"num_deleted":"0","num_feature":"96","num_nodes":"127","size_leaf_vector":"1"}},{"base_weights":[-7.873389E-4,2.1134517E-1,-1.9253308E-1,3.2746035E-1,8.8788025E-2,-3.1877178E-1,-5.4365728E-2,2.8329703E-1,5.321236E-1,-1.0718327E-2,2.2433132E-1,-4.3828684E-1,-2.0406133E-1,-1.343217E-1,9.305256E-2,1.8661289E-1,4.076987E-1,6.060294E-1,1.7379774E-1,-8.504756E-2,3.7165642E-1,2.5032106E-1,-2.5963113E-1,-4.6243334E-1,4.4157085E-1,-1.5987185E-1,-4.3726277E-1,-1.7959262E-1,2.0519705E-1,6.9640726E-2,6.101169E-1,1.10651314E-1,3.5080746E-1,4.3288642E-1,-3.4623258E-2,4.893157E-1,7.3347366E-1,5.1994497E-1,5.738291E-3,-2.3141214E-1,1.6946495E-2,4.74098E-2,4.3706128E-1,1.9694085E-1,3.4143838E-1,-5.3017783E-1,-1.2028708E-1,-5.1831347E-1,-2.3051399E-1,8.181628E-1,1.18553594E-1,-1.8095379E-1,2.8821453E-1,-4.8003167E-1,4.0007785E-2,-2.3255794E-1,-5.567466E-2,2.9000527E-1,-3.743389E-2,3.2586932E-2,2.860701E-1,6.3761836E-1,-6.329417E-2,7.1280287E-3,-1.5806137E-2,1.892121E-2,-1.1642857E-2,2.4490876E-2,1.8460704E-2,6.710183E-4,-6.325083E-2,2.735821E-2,7.912404E-3,4.208256E-2,2.6357269E-2,-5.7104655E-2,2.7419893E-2,1.0691951E-2,-1.3257449E-2,-1.6903056E-2,-3.5696567E-4,-1.9242152E-3,9.96771E-3,-4.8443996E-3,1.781263E-2,2.5216699E-2,1.0044988E-3,8.353462E-3,2.3278108E-2,2.1102913E-2,9.435491E-3,-3.128703E-2,1.1186284E-2,-5.7474744E-2,-4.007691E-3,-2.2557816E-2,-3.2526795E-2,-1.3256989E-2,1.20167E-2,-7.3244324E-4,6.8302006E-2,-5.392147E-3,3.3274177E-2,2.1615059E-3,-1.0516893E-2,3.0343248E-2,7.7216523E-3,-2.7236069E-2,-9.356362E-3,-5.5887885E-3,1.5905214E-2,-1.5696919E-2,-8.110932E-3,-5.346292E-4,-2.0428898E-2,9.42539E-3,2.1348724E-2,2.5275594E-3,-2.296467E-2,2.5962424E-3,-1.30952075E-2,1.1294879E-3,1.8054955E-2,3.667891E-2,1.067006E-2],"categories":[],"categories_nodes":[],"categories_segments":[],"categories_sizes":[],"default_left":[0,0,0,0,0,0,0,0,0,0,0,0,1,0,1,0,0,0,0,0,0,0,0,0,0,0,0,0,0,0,0,0,0,0,0,0,0,0,0,0,0,0,0,1,0,0,0,0,0,0,0,0,0,0,0,0,0,0,0,0,1,0,0,0,0,0,0,0,0,0,0,0,0,0,0,0,0,0,0,0,0,0,0,0,0,0,0,0,0,0,0,0,0,0,0,0,0,0,0,0,0,0,0,0,0,0,0,0,0,0,0,0,0,0,0,0,0,0,0,0,0,0,0,0,0],"id":12,"left_children":[1,3,5,7,9,11,13,15,17,19,21,23,25,27,29,31,33,35,37,39,41,43,45,47,49,51,53,55,57,59,61,63,65,67,69,71,73,75,77,79,81,83,85,87,89,91,93,95,97,99,101,103,105,107,109,111,113,115,117,119,121,123,-1,-1,-1,-1,-1,-1,-1,-1,-1,-1,-1,-1,-1,-1,-1,-1,-1,-1,-1,-1,-1,-1,-1,-1,-1,-1,-1,-1,-1,-1,-1,-1,-1,-1,-1,-1,-1,-1,-1,-1,-1,-1,-1,-1,-1,-1,-1,-1,-1,-1,-1,-1,-1,-1,-1,-1,-1,-1,-1,-1,-1,-1,-1],"loss_changes":[5.734587E3,9.524866E2,1.2915701E3,3.105039E2,4.392189E2,5.304082E2,4.1675146E2,3.399668E2,1.6141113E2,5.3378314E2,1.7346771E2,4.0280298E2,2.0341736E2,3.523775E2,1.5046985E2,1.983974E2,1.3775E2,7.484302E1,6.074461E1,2.3473901E2,6.480191E1,6.3571594E1,2.6442505E1,2.3891162E2,6.153769E1,1.5688596E2,6.421796E1,1.3274396E2,5.5516205E1,9.53911E1,2.8587387E1,1.481966E2,8.119617E1,4.2219482E1,3.9444393E1,5.0512146E1,5.3454346E1,1.6765572E1,3.9740643E1,1.5445215E2,9.371247E1,2.2949568E1,7.133511E1,6.6144714E1,5.9418213E1,1.7339249E1,1.9130304E1,1.3167847E2,5.8479004E1,1.06683075E2,3.3987686E1,1.0446527E2,3.1725113E1,5.459149E1,1.0992598E1,8.106152E1,9.616255E1,2.7708298E1,2.5988026E1,5.7862957E1,3.4365845E1,2.1473053E1,0E0,0E0,0E0,0E0,0E0,0E0,0E0,0E0,0E0,0E0,0E0,0E0,0E0,0E0,0E0,0E0,0E0,0E0,0E0,0E0,0E0,0E0,0E0,0E0,0E0,0E0,0E0,0E0,0E0,0E0,0E0,0E0,0E0,0E0,0E0,0E0,0E0,0E0,0E0,0E0,0E0,0E0,0E0,0E0,0E0,0E0,0E0,0E0,0E0,0E0,0E0,0E0,0E0,0E0,0E0,0E0,0E0,0E0,0E0,0E0,0E0,0E0,0E0],"parents":[2147483647,0,0,1,1,2,2,3,3,4,4,5,5,6,6,7,7,8,8,9,9,10,10,11,11,12,12,13,13,14,14,15,15,16,16,17,17,18,18,19,19,20,20,21,21,22,22,23,23,24,24,25,25,26,26,27,27,28,28,29,29,30,30,31,31,32,32,33,33,34,34,35,35,36,36,37,37,38,38,39,39,40,40,41,41,42,42,43,43,44,44,45,45,46,46,47,47,48,48,49,49,50,50,51,51,52,52,53,53,54,54,55,55,56,56,57,57,58,58,59,59,60,60,61,61],"right_children":[2,4,6,8,10,12,14,16,18,20,22,24,26,28,30,32,34,36,38,40,42,44,46,48,50,52,54,56,58,60,62,64,66,68,70,72,74,76,78,80,82,84,86,88,90,92,94,96,98,100,102,104,106,108,110,112,114,116,118,120,122,124,-1,-1,-1,-1,-1,-1,-1,-1,-1,-1,-1,-1,-1,-1,-1,-1,-1,-1,-1,-1,-1,-1,-1,-1,-1,-1,-1,-1,-1,-1,-1,-1,-1,-1,-1,-1,-1,-1,-1,-1,-1,-1,-1,-1,-1,-1,-1,-1,-1,-1,-1,-1,-1,-1,-1,-1,-1,-1,-1,-1,-1,-1,-1],"split_conditions":[1.13E1,9.6E0,9E0,1E0,1E0,1E0,1E0,1E0,2E0,1E0,1E0,1E0,1.395E1,1E0,3.8E0,2E0,1E0,1E0,3E0,2.1E1,2E0,3E0,4E0,1E0,1E0,1E0,2E0,2.4E1,3E0,1E0,4.9E1,1E0,4E0,3E0,7E0,1.5166667E0,2E0,1.6E1,4.6E1,1E0,2E0,2E1,